solver_type L2R_L2LOSS_SVC_DUAL
nr_class 6
label 1 2 3 4 5 6
nr_feature 17088
bias -1
w
-0.01420980482135849 -0.003990519347962122 0.03889682907357198 -0.03584848270205086 -0.02141610480806576 0.001652770064369093 
-0.03601605222974796 -0.01212164882138983 0.01492098691410637 0.03586803471432451 -0.004680962607062086 -0.006567381157926287 
-0.02866848388269707 0.009909719348947865 0.03605327674470574 -0.03125529502590458 -0.002483753523616355 0.004475379595782644 
-0.03198083329355947 0.03856480574643682 0.0006534104848965811 -0.02991340719745036 -0.0003940790885062171 0.009202088995806025 
0 0 0 0 0 0 
0 0 0 0 0 0 
0 0 0 0 0 0 
0 0 0 0 0 0 
-0.006824471118833883 -0.002905780636413064 0.001082917334521057 0.001628117967919049 -0.002628563164200841 0.008193312850910654 
-5.88412347151029e-05 -0.0001900311491930791 0.0006400523230187845 0.0001466499049367615 -0.000192347227129353 -0.0002039117516509231 
-0.005275346544160936 -0.001084013064619001 0.002382333903989522 0.0007996599742536676 0.001162482587675993 0.004804757301258011 
-0.0006578406060534888 0.001291722557983982 0.0007388166375388352 -0.00105615744677005 0.001681692644094179 -0.001387477352332265 
-0.001679542439689788 1.689852437206143e-05 -0.0001400775284600934 -0.0002748914526908027 0.0001053919912435421 0.001152907567181931 
-0.0006577398565583896 -0.0001909770873703758 0 0.0003597338709884793 0 0.0005607008974688312 
-0.003488969401946406 -0.0002064235260546589 0.003711674747587364 -0.001307694685374445 0.0007949093556827919 0.0002307538933436923 
-0.001473168702725485 -9.566240032424449e-05 0.003643570317532481 -0.001060706039752828 -0.0003325564254775284 -0.0001433979859110982 
-0.003137074243957306 -4.795022623912387e-06 0.001712985295009006 -0.002124098650784906 -0.000485020655726431 0.002124831488857371 
-2.685205082850835e-05 0.0006239389940907688 -2.714360597948024e-05 -0.0002766765055215965 0 -0.0001866268817447696 
-0.0001040129604509599 -0.0002058045569756725 0 0.0004727278575132552 0 0 
-0.005312509997133645 0.0004369355130915576 0.00408586096147039 -0.002035762968803346 0.0004116590082142082 0.001790566701201395 
-0.001055389707572389 -0.0003782036811659081 0.0001028936873500736 3.267470466730495e-05 0.0007556799906769692 2.859151030983915e-05 
0 0.0004637840426433791 0 -3.003879342378268e-05 0 -0.000201074302995315 
-0.001096737002743053 -0.0006432926316585194 0.0001028936873500736 -7.072531958792538e-05 -0.0006247655950977684 0.001679779091935484 
-0.008206035464545259 -0.000956357735542263 0.01535827638347811 -0.009353481067452594 0.001354366673704275 -0.001116281036036144 
1.645286565949904e-05 0.0001876142558285302 0.0005750115352769563 -0.0009093668615816271 6.897146871302357e-05 -0.001678712720297009 
-0.0001562493963113658 0.0001262853740351794 -6.598915980134296e-05 -0.0001078640233572259 0 0.0001820899618216399 
-7.015998643266741e-05 0.0001490239688190583 0.0005205100590421298 -0.000258477873487293 0 -0.0002039117516509231 
-8.847966134001623e-05 0.000366191299262249 0.0001083911079405163 0.0003237079360253948 1.694065894508601e-21 -0.0002805431829391203 
-0.001227361080046884 0.0001366039761885874 0.0007668744560463469 -0.0005035407760649712 0.0001816905808575357 0.0003057158618905057 
-3.015385364793973e-05 -0.0001358029394828637 0 0.0001492366688095759 0 0 
-0.00350840895263662 -0.001155285534640477 0.003462611249843748 -0.0005582595843756563 0.001783754472771466 -0.0009600385392264118 
-0.003010358775618621 0.001586438253941362 0.00540924617572602 -0.002301237298940497 -0.0009711936741084536 -0.00088090873485477 
-0.000708194415210717 -0.0003875629510793056 0.001878433227354117 -0.002281362008681263 0.001471452272132675 -0.0002707286442669486 
-0.0002168274749151622 -0.0002376280175165241 0 0.0001241891919458941 2.202285662861181e-20 0.0004735448411418086 
0 0 0 0 0 0 
-6.776263578034403e-21 0.0004831011022812697 0.0001089262443369969 -9.995499593879357e-05 -5.714176591303165e-05 -0.0002780085224048353 
-0.0006773587352651272 -0.0006555112746409646 0.0005205100590421298 -0.0004931438313360653 0.0004314158143296019 7.231711994230922e-05 
0 0 0 0 0 0 
-0.0002789493304619505 -0.000184965412178375 0.0006593162157662769 1.942529926210358e-05 -0.0001892381107860565 -0.0001376563248098192 
-0.007320090923722838 0.001222376688551573 0.01372140955173742 -0.00970826990628622 0.005227119761788878 -0.003891974768956666 
-0.00179737355427916 0.0009116149667427605 0.0002351707797827645 -0.0006208399517222049 -0.0007832421317733658 0.001383535397566253 
0 0 0 0 0 0 
-0.0001003214181576168 0.0006495304565031568 -6.652092541074819e-05 -0.0002006891846811909 -5.126885164433538e-05 -0.0001080297066992024 
0 0.0002426791371961952 0 -6.205695763628917e-05 0 -7.9468879943805e-05 
-6.913522257793747e-05 -4.235164736271502e-21 0 0 -0.0001213976877102301 -4.64276030015502e-07 
0 0 0 0 0 0 
0 0.0002426791371961952 0 -6.205695763628917e-05 0 -7.9468879943805e-05 
-0.0004016346869572467 0 -9.568637066439206e-05 0 0 0.0003989307207157854 
-0.00190057421550718 0.0001698735623920993 -0.0002556852350237229 -0.0002566059198333872 -0.0002970020104936548 0.001357855448560719 
-8.491101999456262e-05 0.0004005731097292125 -3.338960836017713e-05 0.0002505454270292108 -0.0003855919152942489 0.0001373188204764714 
-0.001314726023840252 -0.0002252013636765428 -5.27421421482209e-05 9.432844886342761e-05 -4.693805534287718e-05 0.0009651700262262635 
-0.007002778722012343 0.004281601439084414 0.004736812996808002 -0.006174778526043875 1.342110538301525e-05 0.0006805929655411219 
4.235164736271502e-22 -6.039232078175895e-05 6.810443005488267e-05 7.954077046772093e-05 -0.0001008249200054098 0 
0 0 0 0 0 0 
-0.0002603310148476858 -6.61838220341206e-05 0 0.0001491037846756957 -0.0001112198797865301 0.0005085255264210168 
-0.001720345622735138 0.0006248668578765759 0.00534445573762735 -0.004496174100606969 -0.001713751256054706 -0.001705278507298832 
-0.0003984692256983302 -0.0002889007557732615 0.00027389180475503 -0.0001302605191490879 0.0004238695503560998 -0.0002523719898475342 
0 0 0 0 0 0 
0 0 9.205652567419199e-05 -0.0001071777032770997 -6.860011955702377e-05 0 
0 0.0002426791371961952 0.0001089262443369969 -9.373357445180243e-05 -5.714176591303165e-05 -7.9468879943805e-05 
0 0 0 0 0 0 
0 0 0 0 0 0 
-0.0009180708714060748 0.0001925582944260691 -0.0002304742310995584 -9.226386011546662e-05 -0.0001112198797865301 0.0009897575439460429 
4.912791094074942e-20 0.0006386025885121766 0.0002859569187288765 -0.0001832915254568205 -0.0002795879631761324 -0.0002937416993123601 
-4.228630168820897e-05 -0.0002774619079806879 -0.0001060572795570287 -1.211886182074675e-05 -0.0001871669705335165 0.0005098780000408449 
0.000678835824664295 -0.0003136844201442496 0 -1.914550075710028e-06 -4.162264324994801e-05 -0.000241112347509438 
0 0 0 0 0 0 
0 0 0.0001398524203794023 -0.0001469061169194011 -6.76113952621705e-06 0 
-1.020847487302791e-06 -5.853402747767138e-05 0 4.670043970134322e-05 0 0 
-0.0002722712851753086 -5.082197683525802e-21 0 0 -0.0002350678810875616 0.0002783845153776064 
-1.131875171756457e-05 0.0002131107001015499 -3.388131789017201e-21 -0.0001341040502380907 0 0 
-0.002670664533727934 0.002077343513886572 0.001623388114853222 -0.0007501066621930163 0.0007243717866881777 -0.0008491298193251667 
0.0002521330385343784 -0.00155930897361975 -0.0001102921800537639 -0.001038740777594136 -0.0004572252528655642 0.002271851203477811 
0.0006722552893759796 -0.0003124357011570104 -1.01966126764759e-05 0.0003575561432896376 -0.0002881877350057263 -0.0004590528457776949 
-0.003272851246632927 -0.0008051646149822472 0.003341328563232535 -0.0005451550050880998 -0.001591041843232238 0.002788915551950303 
-0.0001673075913547023 -0.000596494663447691 0 0.0003981265573218935 -0.0001535778143690149 0.0006039457920123355 
-8.84796613400162e-05 -0.0002396588465470112 0 0.0004723304635058081 0.0005110132943128694 -0.0003738460214434241 
0 0 0 0 0 0 
0.000138617863154757 -0.0004537038147584525 0.0004357002132210941 0.001031797793686372 -0.0003982265708070045 -0.0003963540721161397 
-2.964615315390051e-21 -6.039232078175895e-05 0 0.0001028098093365723 0 0 
0.00071608732565639 0.0004203152523485203 0.0002126038721300423 -0.0002352118815014538 6.776263578034403e-21 -0.0007115803521331547 
-0.0007352752054534069 -0.0005631820037632199 0.0004850045015375628 -5.017943076059682e-05 -0.0008848372282755488 0.001364188116681929 
0.0001353864250884907 -9.776192843292493e-05 0 3.772587704966587e-05 -0.0004431768142608987 -2.696222027739127e-05 
0.0001071462404894655 -0.0003761193976433651 -7.014752753796914e-05 -0.0002120429175740523 0.0009738215561634921 -0.0002266744646435386 
-0.0001699032412170865 0 0.0003406550640792063 -8.311092984612894e-05 -0.0001892381107860565 0 
0 0 0 0 0 0 
0 0 0 0 0 0 
0.0005089325834472084 0.0002103956294712896 0.000110180832979648 -0.0001396042490243144 -0.0002833889700785595 -0.000442186650504753 
-0.0003758760656237863 0.0002288064698197694 -8.712166846090185e-05 4.115002177920236e-05 -0.0002970020104936548 0.0004411221870615945 
0 9.897253651817666e-05 -3.437952631268096e-05 -6.454718536483262e-05 0 0 
0 0 0 0 0 0 
0 0 0 0 0 0 
-0.0004643557269638025 1.372434004200597e-05 -0.0001199268913307717 0.0003095339288492739 -0.0003580965773924976 0.0004842044786295124 
-1.131875171756457e-05 0.0001503549962458913 -3.388131789017201e-21 0.0001014406288044945 0 8.470329472543003e-22 
0.0002464419632568517 0.0001886104020460723 0.0004357002132210942 -6.20569576362892e-05 -0.0005196242585172342 -0.0004762872280899604 
-3.388131789017201e-21 0 6.810443005488267e-05 -2.326903886885136e-05 -0.0001008249200054098 0 
-2.964615315390051e-21 -6.039232078175895e-05 0 0.0001028098093365723 0 0 
0 0.0002426791371961952 0 -6.205695763628917e-05 0 -7.9468879943805e-05 
0 0 0 0 0 0 
0 0 0 0 0 0 
0 0 0 0 0 0 
0 0 0 0 0 0 
0 0 0 0 0 0 
-0.0004016346869572467 0.0008535736440545491 -9.568637066439206e-05 0.0002996562841409139 0 -3.217885274844774e-06 
-0.000239073993889618 -0.000652976306032494 0.0001278936364148056 -0.0003076214107710163 -0.0002158559712163449 6.833494533341135e-05 
-8.32328735664793e-05 -6.275570385565849e-05 0.0002608900090261504 0.0002345423290432579 -8.937142208150184e-05 8.470329472543003e-22 
0 0.0002426791371961952 0 -6.205695763628917e-05 0 -7.9468879943805e-05 
0.001005167172939363 -0.0001733474430804061 -0.0001060572795570287 0.0003228517257976456 -0.0002966696317661626 -0.0006182923124220151 
0 0.0001304627831304051 0 -5.517693390275169e-05 0 0 
0 0 0 0 0 0 
0 -1.123873737655022e-05 0 0.0001241891919458941 0 0 
-0.0003758760656237863 -6.418930066381403e-05 9.205652567419199e-05 -0.0001071777032770997 -0.0003656021300506787 0.0004842044786295124 
0.002548293341932535 -0.0007122432103617638 0.00163013755639097 -0.005018524882716758 -0.002816927884126174 -0.001054242115723461 
-0.006661392327308138 -0.006150194181463912 0.005115490145781133 0.0005875133640659221 -0.006696536690091503 0.009830910227739556 
0.0009788797113881396 -0.0001066261690303527 -0.0001060572795570287 1.750981621290013e-05 -4.936968129295591e-05 -0.0004995808916973122 
-0.0001173367901181035 -0.001367673745360407 0.004503220144475201 -0.003387889909645391 -0.006202087026659951 4.954601358074441e-05 
-0.0007370306462579709 -0.0002495316658694963 -8.951915420696733e-05 0.0007243671024195154 -9.808709748830048e-05 0.0004665995197977751 
-0.0009288513806055314 0.0001271695612316367 0.0005689899039519646 0.0003294913977900789 -0.0009409111375013886 0.000584647839776347 
0 0.0002426791371961952 0 -6.205695763628917e-05 0 -7.9468879943805e-05 
-0.00423318109737619 0.0003002789984756227 0.0003234719847067546 -0.001143924545317681 0.0006321672386682295 0.001063094354186609 
-0.0007067662068619605 0.0002399708492607777 -7.014752753796915e-05 -0.0004579188526527667 0.0008922304563779419 0.0002778696430461549 
0 0 0 0 0 0 
0 0 0 0 0 0 
-3.388131789017201e-21 0 0.0001601609557290746 -0.0001304467421459512 -0.0001694250395624337 0 
-0.00028303624545876 6.036790877932814e-05 -5.274214214822087e-05 -0.0001764528585457245 7.835054762102278e-21 0.0003583716411511172 
0 0.0004853582743923903 0 -0.0001241139152725783 0 -0.00015893775988761 
-0.0002927109789555436 7.348499924140689e-05 0.0001949008492248074 -6.600216748284496e-06 -8.937142208150184e-05 3.021804919549944e-05 
0 0.000200835926784921 0 -0.0001022661566082687 0 -5.743559077282039e-05 
0.000931812076532033 0.000635289064939235 -0.0002611678249146727 -0.0003580101248637145 -0.0002619779382459966 -0.0005872681550641498 
0 0.000200835926784921 0 -0.0001022661566082687 0 -5.743559077282039e-05 
-8.32328735664793e-05 -6.275570385565849e-05 0.0002608900090261504 0.0002345423290432579 -8.937142208150184e-05 8.470329472543003e-22 
-8.32328735664793e-05 7.449118981453748e-05 0.0004007424294055528 1.19531775696742e-06 -9.613256160771885e-05 1.694065894508601e-21 
-0.000949070831573628 -1.460426484539106e-05 3.388131789017201e-21 4.235164736271502e-22 -4.644497143201508e-05 0.0006381954941596901 
-0.0006947296836452623 2.082834739519517e-05 -0.000645048313332651 5.018620763003421e-05 -4.693805534287718e-05 0.0005425631916363657 
-0.0004089417050121106 -4.235164736271502e-21 0.0006813101281584127 -0.0001662218596922579 -0.0004998739092823423 -4.64276030015502e-07 
-0.0005870085913809834 0.00346310529057621 0.0030046282487529 -0.002217171176271617 -0.003048247949096174 -0.001892644037126297 
-0.0005819966185969689 -0.000464482608256964 0.0007832104265346865 -0.0006935291780478353 0.0005330857402869324 -0.0006557432337524576 
-0.0001632071071624268 -0.0002244408222951652 0 0.0001025362291082326 -3.461089653947694e-05 0.0003538888097791923 
-0.001630731477986905 -0.001460822525246225 0.0002207578653969449 0.0005658138120022483 -0.0003047207038292394 0.001621141807977142 
-0.0001350766226871318 7.07205996490214e-05 0 -0.0001729003538541695 -0.0001701517983783756 0.0003141497024343985 
-3.388131789017201e-21 0 0.0001601609557290746 -0.0001304467421459512 -0.0001694250395624337 0 
0 0 0 0 0 0 
-2.913300616063692e-05 0.0001654102251910029 0 4.04792714719433e-05 0 -7.9468879943805e-05 
0 0 0 0 0 0 
0.0002988106803662088 0.0003643188535203733 -2.602797164176313e-05 -0.0002341484979921543 -0.0002517019446140919 -0.0002809689341441214 
0 0 0 0 0 0 
0 0.0002426791371961952 0 -6.205695763628917e-05 0 -7.9468879943805e-05 
-3.78905815214945e-05 -0.0005870731282487278 0.0006813101281584127 -9.881294849684356e-05 0.0001461021295905162 -0.0009878656714026064 
-1.95876369052557e-21 -6.275570385565849e-05 0 0.0002355446790425852 0 8.470329472543003e-22 
-2.552544462843848e-06 0.0001587567902020983 0 -0.0001156524159399242 0 0 
-1.020847487302791e-06 -5.853402747767138e-05 0 4.670043970134322e-05 0 0 
-0.0005210503248989902 -0.0001954534225451368 0 4.235164736271502e-22 1.694065894508601e-21 0.0005431808376596624 
0.0004414093816795137 -0.001354989257483193 0.0005243611867872988 0.0001854390884707303 0.0007611525853888391 -0.00149884766280922 
-8.84796613400162e-05 -0.0001684396878763357 0 0.0003981265573218935 0 0 
-0.00107450596456795 -0.0007660678639962263 -5.78548794999059e-05 0.000456589114113559 -0.000196593219184878 0.001602418447652289 
0 7.961306661005043e-05 -0.0002304742310995584 -3.823958569949759e-05 0 -7.693421940952038e-05 
-0.001929401449190073 -0.0006109318219103912 0.002813786455120264 0.0002132735376373952 -0.001489448889150371 0.0003053930510189902 
-8.84796613400162e-05 -0.0001684396878763357 0 0.0003981265573218935 0 0 
-0.005472287080070713 -0.004790997180909649 0.01037299755074815 0.000580083871473873 -0.001910654404335536 -0.0007785067910317808 
-0.001968705416744142 -0.000463004930499673 0.002114052517378564 0.0003636649303860113 0.0001481878170739594 -0.000177712496556359 
-0.0005317212241924239 -0.001110791152799799 0.0005626736327661967 -0.0001238148242183855 -0.0006676932951748915 0.0004011954591818587 
0 0 0 0 0 0 
0 0 0 0 0 0 
-0.0002722712851753086 -1.123873737655023e-05 0 0.0001241891919458941 -0.0002350678810875616 0.0002783845153776064 
-0.0001094529507852328 -0.0005430750735983318 0.0007163511382557975 0.0003773898775798938 -0.0008646517800550545 0.0001364641418380108 
0 0 0 0 0 0 
-0.001169320008335427 -0.0002465691721320999 0.0004085457762831183 0.0001155391049215879 0.0002705556948024212 0.0003326545685077655 
-0.004393257587644739 0.0007693429502853185 0.004007125861709656 -4.126221982254776e-05 -0.001513666275417445 0.0001856107972356193 
-0.0004230393560006525 -2.653887119314037e-05 0.0009078206108718821 0.0002393179630287526 -0.0004678476436536146 1.694065894508601e-21 
0 0 0 0 0 0 
0 0 0 0 0 0 
-0.0001699032412170865 0 0.0003406550640792063 -8.311092984612894e-05 -0.0001892381107860565 0 
-0.0002531361147835661 0 0.0006015450731053564 -8.411327984545631e-05 -0.0002786095328675581 0 
0 0 0 0 0 0 
0 0.0002426791371961952 0 -6.205695763628917e-05 0 -7.9468879943805e-05 
0 0 0 0 0 0 
-0.0009726677820845324 0.0001275304636126688 -1.377878326252726e-05 -0.0001914924286125206 -1.224636182271137e-05 0.0007768902550440191 
-0.0007409727301248688 -0.0001797383499938256 0.0002608900090261504 0.0002345423290432579 -8.937142208150184e-05 0.0005607008974688312 
0 0 0 0 0 0 
-0.00223723269719339 0.0006236287381621268 -0.0003363431427501171 -0.0004041695381263478 -0.000470642495805893 0.001760595466948892 
0 0 0 0 0 0 
0 0 0 0 0 0 
0 0 0 0 0 0 
0 0.0005790018066614637 -0.0001044005939826834 -0.0004409518938669225 -6.76113952621705e-06 -0.0001874985866430075 
0.0003830186624790874 0.0001414796419432408 -3.388131789017201e-21 -1.675082432683157e-05 -7.393208167543483e-06 -0.0003268249306259258 
0 0 0 0 0 0 
-1.95876369052557e-21 -7.557801486345201e-05 0.0002202776184230825 0.0002355446790425852 -0.0002007631670036611 -8.470329472543003e-22 
-1.131875171756457e-05 0.0003511909230308126 -3.388131789017201e-21 -8.255278037742172e-07 0 -5.743559077282039e-05 
-0.0002889298668130794 -3.783438343819262e-05 0 -4.794750581055262e-05 -0.0001112198797865301 0.0004507343500290527 
0 0 0 0 0 0 
-0.0004305977153891106 -4.951721847943624e-05 0.0002738805863326866 -1.002349999327317e-06 -0.0002901345890851628 0.0003071982104469725 
0.0005832674022195957 -0.0001536840953382124 6.789071220391209e-05 3.606815648840826e-05 0.0004597938055884774 -0.0008785330043003437 
-0.0003427087010890951 0.0004016585445538126 -0.0001762048070949978 -0.0003822301060220376 0.000965493201369511 -0.000501100160946843 
-1.95876369052557e-21 -6.275570385565849e-05 0 0.0002355446790425852 0 8.470329472543003e-22 
-8.84796613400162e-05 -0.0001684396878763357 0 0.0003981265573218935 0 0 
-0.001169805768499076 -0.000131494208512864 0.0003406550640792063 -0.0001451678874824181 -0.0001969851488290644 0.0007834643708059839 
0 0 0 0 0 0 
-0.0003848654517192347 -0.0004087344610731999 -0.0001402950550759382 0.0004605069033181796 0.002139095335912357 -0.001149855564250072 
-0.0005377102856082696 -0.00026263995767825 0 0.001132322788181575 -0.0002350678810875616 0.0001989156354338014 
-0.001838509690672225 0.0008439344727291336 0.0002124324060928578 -0.0001339334144408526 0.0002635875836155251 -0.0003043192874454507 
-0.003485662107630164 -0.0008177528961692829 -0.0001638034714785224 -0.0003570330800863332 -0.001093300626391268 0.003137788006277015 
-0.0002722712851753087 0.0003029751441683547 -0.0002304742310995584 -6.205695763628919e-05 -0.0002350678810875616 0.0001989156354338014 
-0.0007096948557222132 -0.0007656371865487326 0.0009717071174029873 0.0006286683702525936 -0.0008396207656212305 0.0005539591411427159 
-9.56329606913024e-05 -0.0002264954145858064 0 0.000456589114113559 0 0 
0 9.685622829817086e-05 0 -4.794903125192235e-05 0 0 
0 0 0 0 0 0 
-0.0004208866017084041 -0.0001785660266187094 0.0001601609557290746 0.0001207161058073744 -0.0002755800831677779 0.000319293502622239 
0 0.000200835926784921 0 -0.0001022661566082687 0 -5.743559077282039e-05 
-0.0003720696982328892 2.440163163655588e-05 0.000344827224212857 -0.0002040238716358252 -0.0002350678810875616 0.0001414800446609811 
8.470329472543003e-21 -0.0002638181588955135 0 -0.0002665038514785944 0.0007652448609697168 -0.0005665216922819333 
0 0 0 0 0 0 
-0.0002107649677393506 0.0003738448208483301 0.00029130382785662 7.500306807370489e-05 0.0005606187255938873 -0.0006744953358485034 
0 0 0.0001089262443369969 -3.167661681551326e-05 -5.714176591303165e-05 0 
-0.0001699032412170866 0.0002314403998196449 0.0003406550640792063 -2.097869553652406e-05 -0.0001892381107860565 -7.9468879943805e-05 
-3.388131789017201e-21 0.0001472408082445392 6.810443005488267e-05 -5.347594134802887e-05 -0.0001008249200054098 0 
-1.524659305057741e-20 0.0001372101798922073 0 -6.099796585979188e-05 0.0007652448609697168 -0.0007675959952772488 
-0.007173647783649217 -0.006703530681308393 0.002715482779478732 -0.0004315471703621935 -0.0035322510270145 0.007964420211567911 
7.199780051661553e-21 0.0001822868164144363 0 4.075285170028311e-05 0 -7.9468879943805e-05 
-0.0007220253338770748 -5.636657279439808e-05 0.0004688221549993426 -0.0002605005021068841 -0.0005620753378743498 0.0003731045967488399 
-7.991308308422695e-05 0.000598766679666392 0.0003186611516870709 -9.209575106007186e-05 0 -0.0004181995077489396 
-0.01183427728086981 -0.0128868119315053 0.01251869097386983 -0.0156892328710142 -0.001753370486289023 0.01232083170851752 
-0.0001417083704177146 0.0002230083899998449 -0.0001005746896660791 0.0003695775643813285 0 -0.0003178209266616993 
0.002039227012316964 0.005197588050533926 -0.0009243757594580677 -0.007165649392401669 0.005785107984867479 -0.01543343846031303 
-0.00100691921067176 0.00056575604865697 0.0001853308008705917 0.0004342611710177343 -0.0002166731656154063 -0.0005814098749479113 
-0.000181918092960495 -0.0007445455842691254 0.0001770306743918796 -0.0003814209646011231 0.001107698088334566 -0.001041177808713401 
-0.0001562493963113658 -7.455055274974141e-05 -6.598915980134296e-05 -5.597866748957154e-06 0 0.0002395255525944602 
0 0 0 0 0 0 
0.0004148110096150855 0.0002029729354727409 0 -8.279363737828877e-05 -0.000208108933173337 -0.000384815615598803 
0.0005175843939445203 -5.12191311643538e-05 0 0.000149606638316253 -0.0001213976877102301 -0.0005734563546784346 
-0.00152747719354576 9.797255720028662e-05 -5.274214214822087e-05 -2.965137139428546e-06 -0.0002970020104936548 0.001401302733996515 
-0.0006295042119130772 0.0001191866946366658 -7.014752753796914e-05 -0.0003304051196459734 0.001015564008912351 8.627111212347961e-05 
-0.003087139450983217 0.001864925056820329 0.001353258764003141 3.463141677502871e-05 -0.0007948493237333608 4.524566216119201e-05 
0.001850477199149588 -6.190615046526737e-05 -5.279850968436397e-05 -0.002721314954355813 -0.0008712417190570597 -0.0004488939435804389 
-0.0002965137045670121 -0.000136626380291252 0.0003406550640792063 -8.311092984612894e-05 -0.0002721809475423017 0.0002303672973510386 
-0.0009736092445204418 -0.0009741040243772489 0 0.001031797793686372 -0.000333829046640115 0.001008180740677816 
-0.0002498163243013136 9.313942661173824e-05 0.0006593162157662769 -0.0001853770864543977 -0.0001892381107860565 -0.0001950919155826395 
0.000451551880758539 -9.092839148255373e-05 -1.368004056926696e-06 -6.873866625288166e-05 0 -0.0004099375946079141 
0 0.0002760266624931095 -1.377878326252726e-05 -0.0002319888193112324 0 -0.0001080297066992024 
0 0 0 0 0 0 
0 0 0 0 0 0 
0.005490637818434544 -0.004468026747496279 0.006705534852569988 -0.01250755936348714 -0.004450784370110048 -0.00381121867284332 
-0.004564947398118436 -0.001019916012328159 0.00396208886568025 -0.001962849509889435 -0.003638872010284124 0.003071849256970279 
0.0001574903912724417 -0.0003443767209736645 0.0004011944246465569 7.071011149080455e-05 -0.0002974803552548389 -0.0001422922516144927 
-0.0003379497832109673 -0.001100763629499607 0.0009325191403603721 -0.0012812889666379 -0.002996766781917183 0.001364169489181602 
0.000617311661435559 2.143332917379422e-05 0.0002930392956853811 -0.0004704959655952972 -0.000519471422063812 -0.0003776223022080513 
-0.0004165804111590511 0.0002282894993827165 5.355310417531197e-05 -0.0003083126337020044 -0.0002161425389138177 0.0006111466082988518 
0 0.0002426791371961952 0.0001089262443369969 -9.373357445180243e-05 -5.714176591303165e-05 -7.9468879943805e-05 
-0.002617200910814683 3.899508795444098e-05 0.001301121194966889 -0.001302107249261346 -0.001708939482848893 0.002823086141675413 
0.004103091339891244 -0.004604742045287049 0.002522620824277974 -0.006975051692821374 -0.009821742008188 -0.0007072984135750234 
0 0 0 0 0 0 
0.0001260638411531036 -2.430520540208804e-06 1.694065894508601e-21 -0.0001602100563760661 -0.0004681308709835186 0.0001954217649818224 
8.470329472543003e-21 -0.0002638181588955135 0 -0.0002665038514785944 0.0007652448609697168 -0.0005665216922819333 
-0.005222386656115293 -0.007307372209442935 0.0009546154250775148 -0.0002757129209554037 -0.002885114550233666 0.007634035092670779 
-7.137460387892164e-05 0.0001425834292420958 -1.377878326252726e-05 -0.00067057607620306 -0.000126662030264401 5.902607431341919e-06 
-0.002996916427666381 -0.004023345535728965 0.002008848169315965 -0.001840393693799144 0.00247706621736113 -0.000305176731331973 
-0.001269889929123677 -0.001379829598378839 0.0007272731530968077 -0.000747658022212797 0.000590177604137768 0.000521161197122538 
0.0135981028381747 -0.004948030315682194 -0.003293348360428557 -0.01289484518179424 -0.003451305215326606 -0.007217003749150075 
0.005591301920255704 -0.000942463589495086 0.0008843999898367498 -0.00255211793185012 -0.001234158446831221 -0.005245180053444397 
0.0001822878195091013 -0.0001704522040288414 0.0009999712798454835 -9.970032123567531e-05 -0.00049360956185372 -0.0005303222187322444 
-0.002466433647658111 0.0005758615759178884 0.002084011330443778 -0.001237987759565596 -0.002602361018074303 0.001556414829604365 
-0.002154039603044712 -0.004705043471006747 0.002777256295298111 -0.0004723528658738708 -0.003726776815334243 0.002109566858714783 
-0.001058980826050337 3.256449217339145e-05 0.0001287564739785449 0.001424408092594042 -0.001616614158227126 0.0009012581567599498 
0.0003565010258030441 -0.001172148675692347 0.003196057231778692 -0.001056078357147897 -0.001929272954582942 -0.002432206228835612 
-0.01846498463964262 -0.01302912771870314 -0.02329101022537048 -0.014852958208589 -0.02246745476798181 -0.0001286760145888806 
-0.00275933279973057 0.005758098085728927 -0.004897401003781626 0.0005442718733045244 -0.00404826629884549 -0.006238959109357038 
-0.001031353281279534 0.006679471727503468 -0.004179789088188482 0.001899662869713734 -0.007157855768347677 -0.005910544769345636 
0.00549232568710702 0.01007527369025974 -0.004879553972323954 0.001332538755062393 -0.007394008240453562 -0.01275355251218968 
-0.05378185972934262 0.006638712658289222 0.04399216894684327 -0.03755332230601269 -0.039696664078861 0.01740114759051427 
-0.02038041112364071 -0.004961987606383528 -0.01760511986661072 0.02961424701487782 -0.01918876471148152 0.01533564898354324 
-0.057208075139218 0.005123205703116526 0.05115925440020657 -0.02569859978960693 -0.02052116308041795 0.01070075903599135 
-0.03509216007421545 0.04359977547547696 -0.0326030250480493 0.008268001528806693 -0.004351722317074066 0.007713403521273234 
0 0 0 0 0 0 
0 0 0 0 0 0 
0 0 0 0 0 0 
0 0 0 0 0 0 
-0.01259590623811551 0.003024156605660756 0.003562403879700794 0.002931380955400686 -0.007211862272267573 0.007231075905581669 
-0.0003364755413127172 -0.001709679965875859 0.002500412034380631 -0.001683928807358822 8.024254045735955e-05 -0.0004518937172135834 
-0.002717527676044418 0.001306557515946533 -0.0004406208021876475 0.001342327965113733 2.153251677163096e-06 0.0005104781429600885 
-0.004701258677225174 -0.0009935949980785391 0.001359935353193281 -0.0003912791911566035 0.001368627715374722 0.002184412235887888 
-0.001444854339590615 0.001863406894384003 0.0003918636026134421 -0.001248823546989824 -0.0007493782023850028 0.0007191674714072377 
-0.0001513779411197091 0.0003771166633268075 1.029955902970809e-05 0.0003893030343220736 -0.0001233356160734898 -0.0001179904222478374 
-0.003992446832590485 0.0002694745549270552 -0.0006248847924415053 0.0006734106447030332 0.0006621269433780901 0.002416135480621719 
0.0003868336625780515 0.0003595169938844876 -0.0001775858386370789 0.002010448316058188 -0.0007210763970216993 -0.0005146587305310876 
-0.001587201300247614 -0.00250536401305029 0.0002806472731437168 -0.001610258036242771 0.0005936405565284316 0.001049790361941197 
-0.001110107541930047 -0.0003489578897839531 0.002362832945269063 0.001074904828198493 3.700475188317225e-20 -0.0007090026560800287 
0.0004183849461291817 -0.0001914427177703042 0 -0.0001087237984131144 -0.0002353265341005626 -0.0002760841534851216 
-0.004185459489918675 -0.002079440291964843 0.006306429539019809 -0.0006608545556911307 -0.0008637693337128715 0.0008211608937944881 
-0.000901890871544512 0.0005488922003259269 -0.0003774182458609231 3.260518633633492e-05 0.0004280328310600674 0.0006141357683260883 
-0.0004815822912349203 0.0005037489781041712 0 -6.083718949823111e-05 -0.0003749466691262194 0.000357744181578096 
-0.0003605589621864696 0.002155676088474852 0.0003816887437181137 -0.001177758472044063 -0.0002343744747540133 -6.569914098979506e-06 
-0.007460730920216964 0.01116510710222079 -0.0006889504201526734 -0.002107881783822328 -0.0003545084702948823 -0.005800240537622123 
-0.002489595867918031 -0.0004481437744821427 0.001099288582571151 -0.0007103937530923855 0.001231927042324552 -9.623842024665815e-05 
-0.001013705420527721 0.0001834604040742085 8.675739417806617e-05 -0.0002837304903478402 -0.0002337346553534628 0.0003647258734426104 
-0.0004918202592830397 0.0003640145355471054 -1.44464262649856e-05 0.0001793074757936665 -1.399335884887873e-05 6.95440545559744e-05 
-0.0007839609650351584 -0.0004764800912484965 0.00156866678508318 -0.0009993422477543356 -0.0001111828666232259 0.0002513415434533381 
-0.00192735882549872 0.0002594105288648912 -3.27187290469459e-07 -0.0007503417494451655 0.001463197869569903 -9.523498298166722e-05 
0 0.0004358307630731307 0 -0.0002110387116741229 0 -5.89952111239187e-05 
-0.007233724096456787 -0.001176617357901075 0.00362861128006695 -0.0003338705048772006 0.00364902690472747 0.0006329401001978085 
-0.02238292734875257 0.002100550451160516 0.02591850219873488 -0.02086732823831114 -0.006913393263309965 0.003811898461624417 
0.001400571622404947 -0.002371630592699969 0.002404659226627784 -0.0002916349619111049 -0.0007075305655126348 -0.001517721500908393 
-0.002123845107731644 0.0003755502196182999 0.0002186132406978542 0.0001934914523766108 -0.0003967583292073347 0.001303476541470674 
0 0.0008523390713968211 -8.807861167770792e-05 -0.000185824233843585 -4.07634605866132e-21 -0.0002535340253820959 
9.178121967364136e-05 -0.000256263418951386 -0.0003497375673943839 0.0006019868115728567 -7.477476247229033e-05 -7.581694671846227e-05 
-0.0002204635644986109 0.0005109002500288696 0.000672331865526296 -0.0001109527220548496 -6.581117694728233e-05 -0.0003479713143641654 
0 0 0 0 0 0 
-0.0002813839040933924 -1.086056294326386e-05 0.0002686924986816354 -0.0002230314024979691 0.0007251256717863196 -0.000467762085092853 
-0.01111032101301315 0.004292875067491923 0.01084894530356153 -0.004425543814550054 0.002088632049051646 -0.003749503089828952 
-0.0004803730177726713 0.001973145907126246 0 -0.001102755396356342 -0.001024918115405987 1.510575406890258e-05 
-7.062005747095859e-06 2.541098841762901e-21 6.858132611839394e-05 -0.000102807833422251 -5.110650371220809e-05 0 
-0.0003345190581966278 -0.0005175029001170512 -0.0001446360942370003 -0.0003725023295033081 -0.0004765633226449666 0.001009901273501008 
-0.000925540791926709 -0.0001968294876308732 -0.000349737567394384 0.0006007725462104924 -0.0003749466691262194 0.0008029832778690004 
-0.00034021098013109 0.0001103309942925704 -0.0002120330082545782 9.884721520818026e-07 -0.0001882911817067817 0.000383465851880903 
-5.727674329991728e-05 0.0003807286625709946 0 -0.0001131681847095618 1.694065894508601e-21 -0.0001246752429013259 
-0.0006708689202817844 0.0001405607530841757 2.710505431213761e-20 -0.0003302661617217323 0 0.0007096334331622018 
-5.042190523857897e-05 -5.213344682460609e-05 0 -3.87711026301089e-05 1.694065894508601e-21 -8.811589239708207e-06 
-0.003834574346397833 -0.0003792785488291382 0.0004687237956342237 -0.0003318542190936183 -0.0009664382044355988 0.003803020166047317 
-0.003714418215248748 -0.002278138336515982 0.0005040705037695171 0.001036313803816722 -0.0008616185831661998 0.004504214796485947 
-0.0004042533234365803 0.000475305147521768 -8.807861167770792e-05 -0.0002564434612006746 -0.0009497679352708106 0.0007534510536766282 
-0.005541172996518672 -0.001884794678338882 0.004575917222099895 -0.002211230088899847 -0.003048294604484531 0.001496129831043252 
-8.238308603833392e-05 3.437159540278879e-05 0.0005763915524110314 -8.354362069559838e-05 0 -0.0002285509684420014 
-0.0002142264200081033 -3.665980402933081e-05 0.0005763915524110315 4.112270212510802e-06 -8.599937121003401e-05 -0.0002258035345276875 
-1.216769033357377e-06 0.0003245696550900576 -8.807861167770792e-05 -0.0002255531005865171 -1.924299655696573e-05 0 
-0.0002117904919010977 -0.004336290135523763 0.00281593504924925 0.000485911596985038 0.003010149004746808 -0.00179110661076525 
-0.0006128923791226534 0.001035977672369432 -4.236663829527936e-05 -0.0005411225529654127 -0.000105942584769469 0.000226455823803564 
0 2.409161345051023e-05 0 -5.309795216056337e-05 -1.222803610855207e-05 0 
0 0 0 0 0 0 
0 0 6.858132611839394e-05 -7.984647440510486e-05 -5.110650371220809e-05 0 
-0.000105016618888184 0.0001550526219767719 -0.000349737567394384 0.0006007725462104924 1.01643953670516e-20 -0.0002693690779634123 
0 0 0 0 0 0 
-0.0004990479348674809 -0.000179182104970197 2.800771935997653e-05 -0.0007042017033920756 9.745394044283282e-05 0.0007986518958921367 
-0.002088101077662798 0.0005158867818485427 0.001291228538083897 -0.001244738663368954 -0.001327096976353487 0.001044649267147108 
0.001704501348847982 -0.001104906339110911 0.0002168194862756946 0.0003728383204673911 -0.0001527994210618958 -0.001188174904524075 
0.001241501994096613 -0.0008069421823887386 -0.000349737567394384 0.0003591413387989599 -0.0001483116603862112 -0.0001180331535914899 
-5.482330674670861e-05 -7.388375015287987e-05 0.0002186132406978542 0 0 -9.443728898206953e-05 
-0.0008914749691797005 -0.0002038566963177568 -0.0002926455737913857 0.0001993958476400988 -0.0001416022540727878 0.0008992916421913359 
-0.0001308257280823399 0.0002486816519911072 -0.0002120330082545782 0.0003712442548611729 -0.000105942584769469 -1.18584612615602e-20 
-4.312931253570952e-05 -0.0001143910462514835 0 0.0001517974851979844 0 0 
-0.0001320889184914639 0.0001881077840903092 0.0003600371264240919 -2.465428838844948e-05 -0.0001233356160734898 0 
-0.004580123345299678 -0.0006754688155663287 0.0006417065749452053 0.001661944917032366 -0.002931480583833902 0.003008177737751595 
0.002044340881731777 0.001842989571362347 0.00129418779403084 -0.0009498172787236424 -0.002088394855825377 -0.002649156306156895 
-0.0006434926307752686 0.0003140547750867419 0.002132167190391898 -0.000446871685424728 -0.001936659100861519 -0.0006349982457664454 
0.001120812210439212 -0.001191014126934923 -0.0001413243383253724 -0.002814534091769999 -0.0008245881049018095 -2.078207317773203e-05 
0.001216825088939913 -0.0005086862187590924 0 -5.532884653776027e-05 -1.458443953329636e-05 -0.0008261220594116432 
0.0002672318799147334 -1.243710177362637e-05 -0.0001559994445089921 -8.462539384199085e-05 -8.470329472543003e-22 -0.0001061532918860359 
-0.0002145594426288848 -0.000249048128400143 0.0003600371264240919 0.0006696229776523909 -0.0001233356160734898 2.541098841762901e-21 
-0.0007705641535269697 -2.179045425574493e-05 -5.655748255929232e-05 0.0003771790835401896 -5.143064376797952e-05 0.0007029486125087131 
0.0009385677992959977 -0.000514196613206309 0 -0.0002068686043097525 -0.0002073269705961306 -0.0003178290610118734 
-0.00125034905151225 -0.0008850862651406235 0.0004175696918623674 -0.0002452243686561172 -0.0006136189728554887 0.001477102565992885 
-0.001328576911566976 0.0007331238002728452 0.0006161233652208688 -0.0004508333103394141 -0.001177555321236488 0.0008012072654362693 
-0.0001993904664903707 -0.0003795817867350447 0 0.0008971851698387518 0 0 
-0.0008142342840432276 -0.001228009003744815 0.0002905186885236643 0.001798482609890014 -1.458443953329636e-05 0.0001700889326702659 
-4.741369406935742e-05 0 9.506419580772843e-05 -2.319317850157584e-05 -5.280933916739732e-05 0 
-0.0001148642093836994 -1.265613993124982e-05 0.0005774600512611587 -1.383277246898424e-06 -0.0003214969875372481 0 
-4.312931253570952e-05 -0.0001143910462514835 0 0.0001517974851979844 0 0 
-0.001668103300996005 0.0005218861763739797 1.029955902970809e-05 -4.502955579357399e-05 0.001920526061078944 -0.0005739818433962412 
-1.070329218980824e-05 -0.0002074682758429003 -9.229838841215077e-05 -4.996330841910391e-05 0.0005778325285623542 -0.0004571527589386693 
-9.969523324518536e-05 -0.0002731095152501605 0 0.0005904313405600976 0 0 
1.355252715606881e-20 0.0003807286625709946 0 -9.735844109659911e-05 0 -0.0001246752429013259 
0 0.0002062894756111947 0 -0.0001050431173207602 0 -5.89952111239187e-05 
-0.003339511882339947 -0.0007109130874043586 -8.807861167770781e-05 -0.0006260760280236119 -0.0007015946811330799 0.004074597565321345 
-0.0008006301846071615 -0.0002065295997394868 0.0002186132406978542 0 0 0.0005413377542742004 
-0.0007956945576391938 0.00145100647729818 0 -0.0001643914639262309 -0.0004099204008007001 8.598177772386976e-05 
1.217609861678057e-21 0.0005123029171121971 0 0.0003306627062964531 0 -0.0002535340253820959 
0.0004362386535395413 -0.0001803227629594484 0 -7.95405188693651e-05 -0.000196840540986631 -0.0002760841534851216 
1.217609861678057e-21 -5.925723503262047e-05 0 0.0002224136699799136 0 2.541098841762901e-21 
0 0 0 0 0 0 
-5.727674329991731e-05 0 0 -1.58097436129627e-05 1.694065894508601e-21 0 
1.355252715606881e-20 0.0005870181381821896 0 -0.0002024015584173593 0 -0.0001836704540252445 
0 0 0 0 0 0 
-0.0001148642093836994 2.363285093668167e-06 0.0004286184525424859 -8.122975165200328e-05 -0.0002825773147205347 0 
7.958862531285977e-05 0.001289815013159856 0.0002221951886767845 0.0003010608525218991 -0.0004442056658004539 -0.0008111586122651491 
-0.003662758013043656 -0.0004873724448742949 0.0008320447515797424 0.0003776575140209067 -0.0009938863119941794 0.001807006740380318 
-0.0003167810175739628 9.442274992341815e-05 0 0.0004485925849193759 -0.0002574105482705182 -5.792774647953956e-07 
-0.002545687245748499 -0.001943466451853284 0.000207941840130559 0.0009344238789236396 -0.0005799580463805797 0.00263383712983076 
0.000330603005823642 0.0001682294331877118 0 -0.0002261700400977519 -0.000196840540986631 -0.0002760841534851216 
-0.0002371001163731738 -0.0001397493168702978 0 0 -0.0002986676035723908 0.0005514272530955843 
-0.0001517921826308509 0.0003291706293468627 -1.794014976731679e-05 0 -0.00014872127943088 0 
0 0 0 0 0 0 
1.694065894508601e-21 0.0002684337392836099 -7.232104864151467e-05 -0.0001629354975640618 -3.047671688388845e-06 -0.0002185397356102934 
-0.007863659317122804 -0.0008548421372140784 0.004260403862751192 -0.002145866271202744 -0.004117148698125975 0.005853773554634282 
-0.007031645782465841 -0.0001700344702510725 0.01456637355991518 -0.006840784176177498 -0.01210557276639979 0.003281373482044315 
0.0004816815995104086 -0.000560288930036129 0 8.612410116453296e-05 -0.0001978723862131101 1.187782148176327e-05 
0.005998118987006155 -0.008212336088129024 0.0007755685337115713 0.001984300648283407 -0.002442931930231194 -0.001748207487810191 
-0.000799321353606912 4.48858076526431e-05 0.0002625192894540827 -0.0003315591423121616 -0.0002304140895901681 0.000797364570509616 
-0.001364142864087202 -0.001441919713914641 0.005154637630016739 -0.0004320781791975779 -0.002950160236348664 -0.0001106327249640972 
0.0001802094468740018 -0.0002785736386762488 0.0005697426368398011 4.825027284688919e-05 -0.0003132520431056871 -0.0004824632108397527 
-0.00212079032430859 -0.001301831642391939 -0.000169627577190171 0.000656470468145495 -0.0009135691505906137 0.002207000967141972 
-0.001159550347763568 0.002629398307521345 -0.0001761572233554158 -0.001229301221997161 -0.0001272461692671698 0.0004459404818425797 
-9.833968683349139e-07 -5.638665915185673e-05 0 4.498719615160567e-05 0 0 
-4.312931253570952e-05 -0.0001143910462514835 0 0.0001517974851979844 0 0 
-4.312931253570952e-05 -0.0001143910462514835 0 0.0001517974851979844 0 0 
-6.869775327905294e-05 0.0002558324250482467 0 -8.798073078176364e-05 -2.745118151982485e-05 -0.0002693690779634123 
-0.000420370517861643 -0.0003316877203878673 0 -3.902084745667993e-05 0 0.0006256898651883498 
-0.0004716710370549016 0.0007033058599079201 5.403729188233443e-05 -0.0003544997503814628 0.00054329075807531 -0.0004201571347023577 
0.0006481719497442579 0.0005066856597898821 -0.0001431626542461318 -0.000418721639896956 -0.0003438633227537625 -0.0006755002985167966 
0.0003103331283941206 -0.0009114878299101868 0.0002625192894540827 -0.000528434615353521 -0.001160421125492715 0.0007042988301097763 
-0.0001330566651907185 -6.204168238538356e-05 0.0003369780699824778 3.403839522963927e-05 -0.0001076187299772395 -0.0001653738465618305 
0 0.0001718930964689604 0 -3.526439486299349e-05 0 -8.470329472543003e-22 
6.251960245928003e-05 -0.0003022917706703887 -0.0003497375673943841 0.0005893275280600059 -0.0007346557843089173 0.000306754300605779 
-0.001114334949955495 0.0002681447160818117 -7.232104864151467e-05 -8.972890933145175e-05 0 0.0008698761845801212 
-0.003099748365018167 -0.0006821424412041153 -0.000381242312882802 0.001120365231444387 -0.0003374133957777956 0.002365838343476658 
-0.0005777883332143532 7.913016513992136e-05 0.0002201526511588034 -0.0002008538777130313 -0.0003363566743596369 0.000408855202807757 
-0.005349405979982155 0.003649790005362079 0.006727132386384838 -0.0009777136964121095 -0.006446987863265326 7.22464329960874e-06 
-0.002297870845945279 -0.0023070389889552 0.002067403935729109 -0.001961688485956456 -0.001657276198135754 0.001813526128190044 
-0.0001148642093836994 0.0001470322405785742 0.001147594994786341 -0.0007957524840715625 -0.0008145778848439935 -5.89952111239187e-05 
-0.0007725896760882099 0.0002072349563019344 0.0008507626101491346 -0.0003861014796133971 -0.0007352433246449138 0.0004297759174998827 
-6.51583769305694e-05 -0.0001302242603401451 0.0005763915524110314 8.468718455170287e-05 0 -0.0002258035345276875 
1.477013701774686e-20 0.0003214714275383739 0 0.0001250552288833145 0 -0.0001246752429013259 
-0.0001148642093836994 0 0.0003600371264240919 -1.383277246898427e-06 -0.0001233356160734898 0 
-0.0001074053179170077 -3.281939135343367e-05 -5.655748255929238e-05 0.0006289761950306715 -5.143064376797952e-05 -5.89952111239187e-05 
-0.0001412041691052844 0.0003452663746754127 -0.0001363085423020318 0.000405505904617533 -0.000160428069144637 -0.0001246752429013259 
-0.0006927985243878891 -8.902056610940291e-05 0.0005449199101130365 -0.0004280412428091397 -0.0007228250439761894 0.0004349388745716472 
-4.312931253570952e-05 -0.0001143910462514835 0 0.0001517974851979844 0 0 
-5.482330674670861e-05 -7.388375015287987e-05 0.0002186132406978542 0 0 -9.443728898206953e-05 
-0.0007737026907095367 -0.0005068191624222516 0.0005763915524110315 -0.0005557085641690199 -0.0004033185532625538 0.0009452872025460394 
0 0 6.858132611839394e-05 -7.984647440510486e-05 -5.110650371220809e-05 0 
0 0 0 0 0 0 
-0.0001963088364160866 -0.0001060793617118063 0 0 -8.386801395909385e-05 0.000383465851880903 
-0.0008603084849767947 -0.0003008768615693951 -0.0002017970114893002 -0.0008011097803911616 0.001589630933485139 -0.0004618574400384065 
-0.002796711120454043 0.0001747204901692059 0.0006494051979397689 0.0003846012616407456 0.001763483448496172 -0.0013948723803468 
0.001565179878036752 -0.0003582400071158016 0.001152783104822063 -0.0004490731596896497 -0.0001039648283467311 -0.00125401487743223 
-0.003199158261706082 -0.0007549488936284513 0.002902613490359005 -0.001174982757234508 -0.001219878742496454 0.001079196974266993 
0.0004010025720379192 0.0002485895702191938 0.000471753040137485 -3.052405003674282e-05 -0.0002455387855840255 -0.0007343296519253243 
-0.003963472206271271 -0.002794855535163128 0.0002273154461739654 0.0008364482198955368 0.001291689556599588 0.003876116985544394 
0 0 0 0 0 0 
-0.01655902860874739 -0.00489322976780669 0.01524498920304831 -0.008350876806613483 -0.01000084019093225 0.01356738090775058 
-0.003059856907757029 0.003982579191998009 0.005432526450456054 -0.003337526378640155 -0.001583203394862592 -0.001291380313327447 
-0.0002230011631057247 -7.981619410867288e-05 -9.821907332689377e-05 -6.979494062501955e-05 -0.0002398271237190862 0.0006644588289618899 
-0.000482230370159647 -0.0001436095833579921 0 6.301305745214222e-05 -0.0003749466691262194 0.0006112782069601919 
0 0 0 0 0 0 
0.0004341042315429392 0.000119860158343715 -0.0001137899317724396 -0.0003505256487848939 -8.194178645266167e-05 0.0002003994407666084 
-0.0004585129906798804 -0.0003246903091442163 -6.311421679254276e-05 0.0003068799646326253 0.0008341361814201513 -0.0001289256144980134 
0.0001121624287581109 -0.0004020539663831822 0 -0.0001152407042720201 -0.0002838992245349317 0.0001641012168511386 
-0.0004715999004098226 0.0004195082715900086 -5.505714157152952e-21 -0.0001556416844558376 0.0007685223388723643 -0.0008026942173547653 
-0.008483251878234878 0.003569286979475808 -0.0008966227503229758 -0.0008210888731646807 0.001199851896503879 0.0024199424165508 
-0.0007549486930967506 4.496785428491618e-05 0.0003600371264240919 0.0001578393911902104 -0.0003497547462229028 0.0004581524354166702 
0 0 0 0 0 0 
0 0 0 0 0 0 
-0.0004653387214187849 0 0 0 0 0.0004588189174800927 
0 0 0.0001183648292846235 -5.890527838182193e-05 -0.0001076187299772395 0 
0 0 0 0 0 0 
-0.0002822234964265246 -0.0003045496693533725 0 0 -0.0001848853307501606 0.0005135046693656789 
-0.0002476344230746689 0.0001221738885522167 0 -9.735844109659905e-05 4.065758146820642e-20 0.000416151068810416 
0 0.0002062894756111947 0 -0.0001050431173207602 0 -5.89952111239187e-05 
-0.0004271020032616817 -0.0003558128212034097 0 0 -1.458443953329636e-05 0.00026376038642368 
0 0.0002727958721829041 0 -8.462539384199085e-05 0 -0.0001114628214244322 
-0.001130034633585617 -8.236925434809652e-05 -8.038419805697709e-05 -0.0003500648639640655 -0.0002123121178583967 0.001138121774882915 
1.863472483959461e-20 0.0005870181381821896 0.0001183648292846235 -0.0002613068367991812 -0.0001076187299772395 -0.0001836704540252445 
-3.811648262644352e-21 -8.331862188263808e-05 0 0.0001418387556407216 0 0 
0 0 0 0 0 0 
-0.0009227744070493816 0.0003698221338980245 -6.159161962936525e-05 -0.0001336713146272998 -0.00029744255886176 0.0005185307696574065 
-0.002155027295714031 -0.0009334872612236682 -9.229838841215077e-05 2.98641848560197e-05 -0.0004154148070849306 0.002351088148170598 
0 0 0 0 0 0 
-0.0003728901872533039 0.0002903824181153794 0.0007948829760982262 -1.383277246898441e-06 -0.0005546320906754877 3.388131789017201e-21 
1.355252715606881e-20 0.0003807286625709946 0 -9.735844109659911e-05 0 -0.0001246752429013259 
0.0004190139444317768 -0.0002810135013636957 0 0.0002255977343223601 -0.000196840540986631 -0.0002760841534851216 
0 0.0005987274633710129 0 -0.000289903761106354 0 -0.0001114628214244322 
-0.003010489883180982 -0.0002508408618403716 0.000482229386411835 0.0001182013241513569 -0.001250150617837524 0.002360729965619032 
-0.0007634421979112801 0.0004285262511054703 0.001100958371586891 -0.0005126937489132062 -0.0008109467776877265 -0.0002872518800282405 
-0.0005954350937121093 0.0001871441463816298 -0.0002283204931505068 -0.000368722148634417 -0.0003723454310878035 0.0008121135527979799 
-0.0004510485177956725 3.957861657096831e-05 -7.232104864151467e-05 0.0003990489520450242 -0.0006067609417873311 0.0002571644360027468 
-9.969523324518535e-05 -0.0001897908933675223 0 0.0004485925849193759 0 0 
-0.0002371001163731738 0.0003612148713154493 -7.232104864151467e-05 -0.0002258073205624136 -0.0002986676035723908 0.0004733976356232609 
-0.0003904589688555638 -0.000179644765973121 0 0.0005030316290207609 -0.0001081351949348371 0.000416151068810416 
-0.001025610729594515 -3.964692556311447e-05 2.710505431213761e-20 0.0001483296335307534 -0.0002350678810875616 0.0009813331278863192 
-0.001370901706425738 0.00127842106093498 -0.0009293101533108432 -0.0001908762045024414 -0.0005179754968599304 0.0001087582028812877 
-0.007564123875073072 0.004349323998827156 0.005089513214416843 0.003054429437431289 -0.002092198152689615 -0.0001955770540436177 
-0.003480871876163932 0.002002651732955931 -0.0002597605735047409 -0.001469926104882843 0.00127884672054613 0.001034980081505883 
-0.0002900292586697721 -7.431461215875699e-05 0.0006443501285277023 0.0003367304683751163 -0.0004746942328169918 3.406685238125794e-05 
-0.0001754353617827899 -0.0007985225023399008 0 0.0009359120753250172 -0.0002066042430435915 0.0002876131596338587 
-0.00142060084125295 0.0001676734120471408 0 -0.0003272054773755766 0.001095539445880516 -1.625531731032706e-05 
0 0 0 0 0 0 
0 0 0 0 0 0 
-0.0009287138377404354 0.0004653380187711573 0 -0.0002324388567457733 -0.000309842643559852 0.0007450110224983024 
-0.0004729123598566376 0.0001652292338880461 3.477202872540584e-05 0.0009574978413176283 -0.0007988408326586616 0.0001255892835269557 
-0.002507031493984981 -0.000814849424276043 0.001393357101464257 -0.001464104829465776 -0.0004996840069219412 0.001312931369577028 
0 0 0 0 0 0 
1.217609861678057e-21 -5.925723503262047e-05 0 0.0002224136699799136 0 2.541098841762901e-21 
-0.0002336582040871751 0.0002422995579469232 -8.703311362820762e-05 0.0004386459271330651 -2.745118151982485e-05 0.0001149715547315946 
-7.867741700583783e-05 -0.0001204366707577357 0.0008561391944806424 -0.000991586233888923 -0.0009641440279565467 0.0002509916481761103 
0 0 0.0001183648292846235 -5.890527838182193e-05 -0.0001076187299772395 0 
0 0 0.0002625192894540827 -0.0003039132531612724 -0.0002304140895901681 0 
-0.0005957178611594506 0.0005834191062691358 0.001203136282293395 8.990483761633019e-05 -0.0008545777463696453 -2.279331993691665e-05 
-0.005812894730567912 -0.004633728027522061 -0.0001507851203726979 0.0005721638368096065 -0.002383751817333008 0.007300126648222773 
-0.0008642268605766449 2.969318591407072e-05 0 -0.0002070937996020727 -3.303044116000387e-05 0.0009135473301009582 
-0.0001677182932213879 -0.0001147810002498537 -2.011703249728963e-21 0.001283735095915256 -0.0003556475451537247 0.0002756443556788882 
-0.0004321758846145321 0.0008746695228252712 -6.776263578034403e-21 0.0001888719832995351 -0.0002765026928986115 -0.0001246752429013259 
-0.003233736426119851 -0.004375435530899501 -0.000219703358977918 -0.005165871811135368 -0.004425436766327727 0.007425834802590877 
-0.001330146767588316 -6.466658298581721e-06 0.000271958514746384 -0.0006110648464548316 -0.000455033660805884 0.001805722764810554 
-0.004537573343377213 0.004897089935526575 -0.0005322408934361535 -0.00438579580982335 -0.0009228489728471929 -0.002336729869437729 
-0.005991800266485454 0.001046751657385054 -9.592049652912187e-05 -0.001163420493756064 0.002784977313160342 0.001927953602652667 
-0.0004308599568685443 0.0009707072993396231 -9.854626061736324e-05 -0.0002876921035768181 0.001881464244640587 -0.001279471739861813 
0.0001394284085057712 -0.0004403794515650725 0 0.0002173744931020768 -0.0003880479923858255 0.0005466786300077411 
0 0 0 0 0 0 
-1.948661268787101e-07 0.0005703107430480963 -0.0002543684688105189 -0.0001853391718783629 -7.888182528780436e-05 -0.0001246752429013259 
-0.0004745202854878244 -8.103502207757845e-05 0 0 -0.0003749466691262194 0.0006112782069601919 
-1.936794582372407e-05 -0.0005837989036588578 0.0004784019557087154 -6.365729473939156e-06 -0.0002455387855840256 6.816490659131471e-05 
-0.0008634948284963766 0.0004816076134610616 0.001334541150189358 -0.001156442496396891 -0.001000754300053266 0.000524312221831838 
-0.004860002299901673 0.006156909109666884 0.00392166693060824 -0.003034575353531971 -0.002022399555700149 -0.002214781865656163 
-0.004000170682070616 -0.004267266441535957 0.0002425980677987104 -0.001221928306411726 -0.00146050056298501 0.003023564282061013 
-0.0004825634305265494 0.0004907875634276763 0 -0.0002275969013733117 0 0.0003998237063561742 
-0.001399580980580453 -0.001442039959957171 0.0006284885189394915 -0.0009818922550417122 -0.001839405916987172 0.002033600809622658 
-0.0006752299559888184 -0.0002004923936597499 -0.0003484917893841681 0.0002504764356408466 -2.673447739771385e-21 0.0006226555203723583 
-0.0002822234964265246 -0.0003045496693533725 0 0 -0.0001848853307501606 0.0005135046693656789 
0 0 0 0 0 0 
-0.001136997306734002 -0.0002910865918517222 0.0002186132406978542 0.0001461248667976246 -3.497373167448081e-05 0.000581261711280796 
-0.002455595071681158 -0.0008219433295809254 0 0.0002935822203402605 -0.0006648128944926024 0.002313922373394323 
0.0007286459646835925 -0.007852360761563881 0.005996209417674924 -0.01020803984146485 -0.001040366863201991 -0.003568723705912417 
-0.004721872618828855 -0.00361908058566979 0.0008627733834248817 -0.0004128203136115846 0.001199427628461959 0.002578839472504977 
-0.000212019986077105 -5.478265061248192e-05 0 0 0 0.0001285392656798931 
-0.006560772034849391 -0.005134746775295552 0.006491005960592054 -0.002587571504108587 -0.004838645192090176 0.005559459101806438 
-0.002647855844599744 -3.779693721677189e-05 0.00072654202372132 -0.001744619448535038 -0.0006469307767609676 0.001666300665643363 
-0.001470392783944816 -0.0001788366805419298 -0.0001227508363522563 -0.0004021024443534621 -0.0003404215613528366 0.001462505292457025 
-0.000149068043077534 0.000508262037276982 -0.0006916520082249274 5.082197683525802e-21 -8.599937121003401e-05 0 
-0.007996700972915063 0.0009815623955817241 -0.001642600290919301 -0.0004152906266515355 0.0006639664124774854 0.004500592125733813 
-0.002228060693118985 -0.01494847426353102 0.001938298158534159 -0.008733286848070409 -0.007759755341239852 0.008078346000949775 
-0.001320727734463656 -0.0001664803294343065 -0.0002924172063115554 0.0001774143342235835 -0.0002991106103803025 0.001624109827827365 
-0.0003576734852429363 0.0003305678557998263 -0.000430121765451361 0.0005209428612461298 -0.000105942584769469 0.000291776248059884 
-0.000193192293998171 0.0008925343810124689 -8.061256553680736e-05 -0.0003368027424112534 -2.745118151982485e-05 -0.0001704580325483509 
-0.01002165665634413 -0.01160053252778775 -0.0007643910363110145 0.001205519270949472 -0.004113314322013562 0.01447994049867857 
0.0002925041742053364 8.699498954768422e-05 0.0001380006751610468 -4.539909715537002e-05 -4.39443170739872e-05 -0.0005667968257632626 
-0.008546661859917044 -0.0137327860558566 -0.0004667803813039926 -0.004228009753915772 0.006170419069903853 0.007885178309287736 
-0.0001659262719104114 0.0009929327012163168 -0.0008297819234267003 0.001286153806902824 0.001915976762436015 -0.003681911600545288 
0.01859453938358947 -0.002257156273282291 -0.003673099551678942 -0.0113833223793468 -0.002632353147140948 -0.01173675427386133 
0.0003244633048856848 -0.002040260078317101 -0.00160016816729002 0.001587137837860714 -0.0009555281708179279 0.0008724035816161337 
-0.001965964457159144 -0.0007579355232740115 0.0003600371264240919 -0.0003450122392284558 -0.0009502990295469147 0.002039572799382716 
-0.0008249738997840088 0.0002466491460054808 0.0004365101923130009 -0.001763278158284539 -0.001162499106420602 0.000283213598342813 
-0.004221481203435308 -0.006674924885845125 -0.000589040715269939 0.0004881476822312571 -0.003363065146947888 0.008039527412442255 
-0.003395830890862593 -0.002226260281831444 -0.001704638620597196 0.00190500372178776 -0.002878135477731164 0.004355639055696424 
-0.0005141786776806412 0.002229661778831076 0.002199526763498641 -0.001157244431508648 -0.002867788875925391 -0.001414461586706323 
0.0181268948356525 0.0007134767928206025 -0.04343427118493604 0.003914055770078421 -0.009880884531419725 -0.02814490012448776 
0.009382683588985235 -0.004451372466383041 0.004594248012769033 -0.01295929741165447 -0.002127798109582526 -0.006110765234459786 
0.009809380941059471 -0.000794143323832068 0.006500866194690937 -0.01076400412538202 -0.008671720234052592 -0.00643169993214115 
0.01799561228307532 0.003691691009996756 0.002397045014281699 -0.0105243250469769 -0.006779787574776069 -0.01344820035736803 
-0.0366206381425402 0.01007225850709942 0.01146695729503724 0.01209425141703203 -0.0329300688053813 0.006809878033043891 
0.003129785620656882 -0.002010245728658619 -0.03053645770928621 0.0299728179250965 -0.03110136564950798 0.007941388092084993 
-0.0461190676715961 -0.003111734830462998 -0.0007380778520985948 0.02667754722613341 -0.01272260350394839 0.02231306769893432 
0.01943495980408821 -0.007258462256874805 -0.01304018726452134 -0.00521540164716996 -0.01677056575918655 0.01140903030535438 
0 0 0 0 0 0 
0 0 0 0 0 0 
0 0 0 0 0 0 
0 0 0 0 0 0 
-0.008499164572108954 -0.002591271758916813 -0.004252640707123095 0.008771268107336765 -0.005974427988208162 0.0111154630462097 
-0.002565741189171861 0.001026761780571126 0.0001087911438485039 9.253653978009405e-05 -0.000217885796092623 0.0006901359410996115 
-0.006193435550192465 -0.001391221073942866 -0.001708321270802285 0.000731562098563834 -0.001065814387175233 0.007405929298592403 
-0.004172860154286721 -0.001332878322094737 -0.0009222012760206031 0.00244825323706911 -0.001135478117623353 0.00346873524990885 
-0.001446860112203564 -0.0008743560993765651 -0.0002976436741068518 -0.0006836331879317526 0.0006271421441947013 0.001248473088644295 
-0.0001735794855308474 0.0001330490224737834 -0.000831032736140414 0.001780221601354933 -0.0001003615308111205 -0.0001032409035260993 
0.0007691387942135872 -0.0003157431498211536 -0.0002753984384055244 0.0006149307165966895 -0.0004937170607128483 -0.0005890963201812693 
-0.001105614397735159 -0.004289424283631162 -0.001944678277355867 0.002295014886653396 -0.0008563983723238242 0.003747659154977176 
0.001099849691384727 -0.004019425049727923 -0.001168237190794745 0.003503110003123695 -0.002125840735874102 0.001644313174420629 
0.001401624301811557 0.0003015685277215189 0.0005763989234053549 0.001151708805623804 -0.001507677574287364 -0.001156887561377854 
0.0009713208066691137 0.0002812121289959801 -6.392668261146187e-05 -5.890044685520329e-05 -0.0004555776924537864 -0.0001723041254107048 
-0.005273974582214925 0.0001408351407544632 0.001802501738216218 0.001294424883448925 0.001048722758818751 -0.0007997823290590662 
0.0001765144436771092 0.0001193708413880598 -0.0002296603382621329 0.0001668911372068135 -9.36379873347351e-05 0.0002439214589132388 
-0.001016864392905582 -0.0004709634891275047 -8.083461984099151e-05 0.0004559706964946066 -0.0001994024934995711 0.0005644237109132665 
0.002031324627985225 -0.0005077124337931905 0.0003359021518512976 -0.0002208758590499768 -0.0007829218131242485 2.766422144973735e-05 
0.01138267019350435 0.007695787944532245 -0.005800144084722052 6.452041874686021e-05 -0.009236350839784196 -0.004533002567907396 
0.0004025318873523991 -0.004828636415802752 -0.001332986094100924 0.00471417399785643 -0.0003784525236474396 0.001471056053148682 
-0.0006536345572961002 0.0003094156672387832 0 -0.0003493221340472523 -5.002713729812866e-05 0.0003474825127439828 
-2.818447845243563e-05 -7.475315020514427e-05 0 9.919780073364731e-05 0 0 
0.001098106926944156 -0.0006659415926012896 3.388131789017201e-21 -0.0005773654120697229 -0.0004390374916405538 0.0001963982709979254 
0.001265048085740577 -0.001424507458586818 -0.001857243228728068 0.004109343508698273 7.217600813497214e-05 -0.0009613832822630677 
-0.0007908386541897623 0.0007872933424480403 -1.403969038239234e-05 -0.0004160938000552825 -0.000177838237304889 0.0007126037886566617 
-0.008026452795352305 -0.003187158262470039 -0.002075546367966098 0.005444573304299429 0.002395145649653034 0.004308004892433459 
-0.01671910987122799 0.001528254346613769 0.001819134308660237 -0.001129638338881811 -0.003928861786361154 0.008085395746259791 
0.002267296214389587 -0.004982647003659646 0.0002933560323123252 0.00213542316877191 -0.001815540745327939 0.001469201636434299 
0.000633153068125168 -0.0003362533049965177 0 5.404193899750152e-05 -2.071460151557776e-05 -0.0003145641565003976 
0.0004082565972343023 0.0001544099025028724 0 -0.000130564576268376 -0.0001750400458294264 -0.0002017449500458561 
0.000302487582341693 -0.0001255773170882668 -0.0005971729102306134 0.0002609329768926217 -0.0005178853747149074 0.0007168556757237388 
-0.00095386237946348 -0.0005276840923385876 0.0003359021518512976 -3.432676944552411e-05 -0.0007867465055042329 0.001365576400649703 
0.0005942511820025591 0.0003089358619138931 -1.694065894508601e-21 -0.0003016168209362684 -0.0003348255899863823 -8.506204010211025e-05 
-0.0005222591403962755 0.000352851594031282 -0.0002247192356439134 0.0001235340364671776 0.001121940246165333 -0.0004991366458536797 
-0.007992315047598163 0.002055026790467603 -0.004805254614230272 0.004509974796252763 0.002106361878588645 0.002021092580339903 
0.002190131203619622 -0.000280560394402707 -0.0007154478710940447 0.0009706323880356954 -0.001847631122429043 -0.001009995348253886 
-0.0003163930097867942 0.0007940874758870187 -4.572876051149256e-05 8.975738567373731e-05 -0.0004186653156809548 -0.0001937037496102787 
0.0002053624889202228 0.002209373385451545 -3.040884662666123e-05 -0.001046484703591058 -0.0006225127123183421 -7.093685261930261e-05 
-0.0008483465331689617 -0.0006649535862966884 0 0.0001063407695515041 -0.0003576919083741713 0.0009939082095487275 
-0.001162434251754365 8.281434037990853e-05 -5.087279743218583e-05 -0.0004969158957961105 -7.334187579958569e-05 0.0009644030996703373 
0 0 0 0 0 0 
-0.0001967878433544437 -2.029722609556136e-05 -8.31098535331328e-05 1.192265115897088e-05 -5.918757834739129e-05 0.0002166077137407499 
-0.001363197243045601 -0.0001632293929890776 -8.452664284846087e-06 0.0006754489722771721 -0.0008091613707849338 0.0009620871990110532 
-0.0002509614741009133 -0.001734381033568439 0.0007208705935128108 1.509374304645579e-05 -0.0007605614226277961 0.001218945453833644 
-0.008217569202358891 -0.003161976105343944 0.004355851953184994 -0.00114598781614372 0.002063050116460842 0.002416403167034581 
0.0001987606977035726 0.000271902823063713 -3.388131789017201e-21 -1.962969416144881e-05 -0.0005236206834983456 2.355866377740519e-05 
-0.007064240193355139 -0.0008891693135213766 0.0009884469597414528 -0.001756972181269677 -0.01302854348799411 0.004827973589465096 
-0.0005800267324107428 3.358065056022203e-05 0 -6.309398264431062e-05 -0.0006155318617144039 0.0009893849186016455 
0.0004065895430234186 -7.24799263016044e-05 -1.694065894508601e-21 -0.0003185971164623481 -0.001127063855055244 0.000546743843024267 
-0.001292589121533374 0.0004257556509853958 -0.0001330455747586375 -0.0004230189711113989 -0.0003805133776152306 0.0006901648184332296 
0.0008700270365590773 -0.006988806849876951 -0.001078281623312837 -0.002316352757203964 0.001867554588179738 0.0002386430820288217 
0.001377029392821832 0.0002152843096841796 -0.00012282048119 -0.0004526040449875423 -0.0008810039212150812 -0.001419119016902473 
0 0 0 0 0 0 
-0.0006898349240481233 -0.0006702981785159019 -0.0004829072408431224 0.00084551240521297 -0.0003723208071384496 0.001003981046726329 
0 0 0 0 0 0 
-0.0004433173645177249 -0.0007773412120744116 0 0.0001644821344018634 -0.0004080466262863452 0.001049131470324758 
0 0 0 0 0 0 
-0.0003728926039376056 -0.000155989868954296 0.0005567188949988344 -0.0002267805393908126 0.0003466711130767014 -0.0007310198790265187 
-0.001204085642537403 -0.0002875844701142345 -0.0007319801504459896 0.001419892601179281 -0.0009674935780440839 0.001355171033755793 
-0.001883971660882058 0.0001539891253903708 -0.0002484521599690005 -0.0003842324448254486 0.001092517865298078 0.0005922798003743919 
-0.0003835496996510347 -0.0003594572724799725 -0.0008984236089133292 0.002303956048679201 -0.0001831367205152286 0.0002386749857304988 
-2.435219723356113e-21 -0.0001154987097483688 0 0.00043350810916065 0 0 
-0.0004041639644261803 0.0003533425207459092 -4.572876051149256e-05 2.941585233231233e-05 0.0002693319340430942 -0.000156743281652614 
-1.751354256767701e-06 -0.0001477394523784027 0 0.0005593141953116524 -2.931253578255091e-05 0 
-4.283222666557047e-05 -8.301996621096783e-05 -0.0004609561474389036 0.0008100879304107753 -1.694065894508601e-20 0 
0.0003036467138055788 -4.155114991177499e-05 -5.38884303609662e-05 -5.378103334542417e-05 -0.0008403537078617451 0.0005539832966085318 
-0.0007142486158972757 -0.0009135155464616403 -0.00115268713759935 0.001737598018723174 -0.003691022593849107 0.004039577157696555 
-0.00132460186865936 0.001548032490919006 -0.0005052411842423242 0.00169870007883355 -0.00144796770968955 -7.128457963759201e-05 
0.0003093158811267965 0.0004733773518668718 0.0005777550724023389 0.0006018401001796302 -0.0008543636991657467 -0.0004027278662144787 
0.0006193716578012206 -0.0006770050725706016 -0.0001785090548830514 -0.001102935263589187 -0.0002324135986982649 0.0002570386221870562 
0.0002781750986967307 -0.0003046107034241964 -0.0004829072408431224 0.000616372778970493 2.749548356126264e-21 -1.737071907633995e-05 
-0.0004798326674858689 0.000454787557172736 -0.0001810132541707268 -0.0001197164156022555 -0.0009336594014468237 0.0008430777295232125 
-0.0003969752745273087 0.0007573746676557488 -4.572876051149256e-05 8.224106720093171e-05 -0.0003790848938422573 0 
-0.0006445584043323748 -0.0003153244195043065 1.355252715606881e-20 -0.0001290052315530013 0 0.0008141656443879418 
-0.0003565531261630521 -4.415239693201367e-05 -0.0002494138927946089 -9.631827235842574e-06 -0.0001756852079680971 0.0003696299639109514 
-6.670441722585439e-05 0.0001951649723031233 -0.001015985399019016 0.001552304397437342 -0.0004632907245496505 9.247017961504541e-05 
-0.00119622570783592 0.0001127299666829658 6.763879957038086e-05 0.0002670973000369513 -0.0005131815295799181 0.0007120960035323552 
8.470329472543003e-22 0.0003880519471038583 0 4.937431218438865e-05 0 -0.0002059056170111275 
0.0003426195777649158 3.081099712652634e-05 -0.0002848388486507676 -0.0004769221686313231 0.0006803026635757893 -3.602003243820426e-05 
-2.818447845243563e-05 0.000428574710509639 0 -0.0001332245941260002 0 0 
-0.0004146551305166026 -0.0006767388843763062 -0.000415516368070207 0.0009553790364495241 -0.0002374878060537525 0.0002383544693626259 
-1.54327504120407e-06 -8.848932361690741e-05 0 7.059979468114387e-05 0 0 
-0.0007615704119357954 -0.0008824697588334867 -5.388843036096621e-05 0.0001498046955800869 -0.00120742184824364 0.001743208093603246 
-0.00164298604559193 -0.0005054997341273369 -0.0004734090106935889 0.0003931031159501169 -0.000835604810203271 0.001979673848883529 
0 0.0001406266723574824 -7.019845191196179e-06 -0.0001181908131236933 0 -5.503764756508948e-05 
0 0 0 0 0 0 
0 0 0 0 0 0 
-0.0005449617019745841 0.001205142521991389 -0.0006722716855851556 -0.000250751622945005 0.000604202758485873 -0.0005818122898591795 
8.920856162675205e-05 0 0 0 -3.958042183869773e-05 -0.0001937037496102787 
0.001321970358811277 -0.0006738251444398648 0 -0.0004364014781932436 -0.0005594482649759287 -0.0009741724408787074 
0.0004004539433585882 0.001129385745321289 -1.920226087107037e-06 -0.000337410214279178 -0.0003258935553569203 -0.0008388576135970747 
-1.339930449873908e-05 -1.349785231101383e-05 -6.392668261146187e-05 0.0002369215973388534 -3.477467755020958e-05 0 
0 0 0 0 0 0 
0 0 0 0 0 0 
6.140651546381825e-05 0 0 -9.631827235842574e-06 -0.0001756852079680971 0 
0.0001753556864964271 0 0 -0.0001420085784755283 -0.0003403781434223811 -8.470329472543003e-22 
0 0 0 0 0 0 
-0.0003148501437687511 -0.0001946903428553341 0 0.0001893761568605762 0.0008618809982789815 -0.000197460959499183 
-0.0009730910734359506 0.0003752297714196233 -0.0001492303873183749 -0.001100650056420987 -0.001795010827682171 0.002368879157319382 
0.003282137087388287 9.048503200775173e-05 -0.001236672530269896 0.001292322691896488 -0.001821680616125905 -0.002235536698697922 
0.001094835096359409 0.0001321809066833459 -0.0001077768607219324 8.764067493335292e-05 -0.0004783872798790724 8.470329472543003e-22 
-0.001532901126667252 -0.0005663956503255066 0.0004014080226378543 0.0004654637479605334 -0.0002753542751631977 0.001091240993305856 
-1.868906192667052e-05 -4.49559586467666e-05 0 8.975738567373731e-05 0 0 
0.0003224118557992711 0.0006503214530563025 0 -0.0002560006433414333 -0.0001183689259072353 -0.0003845450859663127 
0 0 0 0 0 0 
-4.519656007909057e-05 0.0006840408910864665 -7.019845191196179e-06 -0.0001515386376613645 0 -0.0003491557109627329 
0.0006949117396592892 3.010461588938326e-05 -0.000415516368070207 0.0007109224442637388 -0.000399160652844137 -0.0001717884248812662 
-0.009643831943570399 -0.004192521284950943 0.001711189736028137 0.002515371947113474 -0.002238740284037722 0.007374389701916383 
-0.0004491407565640291 -0.005657116423309123 0.0194834396460451 -0.004165383481909888 -0.009742176296362051 -0.005374431442088452 
0.0006304422312434066 7.972572260599979e-05 -1.138996475720614e-05 0.0003460179023694821 -0.0004279681122928445 -0.0008712584546504525 
-0.003453663291798905 -0.006221568445730728 0.009137968408137576 -0.005712602951787067 0.005300609056905475 -0.004117624545196276 
-5.726777916091414e-05 -0.0008187224875995274 0.0005243075119187107 -0.0003467747818853953 -0.0005075239902302382 0.000129114656241914 
-0.0005167155847941174 -0.0005186278699314673 -0.0001812391628261507 0.0002699823057713266 -0.0001876019506571511 0.0008895385268813741 
0.0002060820775270695 -0.0001396345677982144 -0.0001997645885138573 0.000691735485290858 -0.0002789677972197124 0.0004789876585547555 
-0.0008683949330753006 -0.002828830042339403 0.002618379661421908 0.002924793054495225 0.001219529052330215 -0.001841722657533032 
0.003411165251694781 -0.0004267998616275863 -4.238628819041265e-06 -0.001349672784356122 -0.001623035549815831 -0.0005784992364071489 
-2.818447845243563e-05 0.0001197384221266349 0 1.622052927447588e-07 0 -5.562121546695889e-05 
-0.0004896670288059353 -0.0006666767938167971 0 -0.0001328885421525681 0.000735714389311664 -6.811306565346167e-05 
-1.006276504043322e-05 -8.166876687803669e-05 0 8.224106720093171e-05 0 0 
0.0002708352356208353 -0.0003919560091240472 -6.415604630253541e-05 0.0007472072884445172 0.0006684252584095358 -0.0008995894884427167 
0.0002752319986119845 0.0003277117868253907 0 -0.0002697363956384161 -0.0001856090081281561 -0.0001166829099437459 
-0.001074910047428625 -0.0008762346268831277 1.355252715606881e-20 -0.0008462451289191812 7.196684236186893e-05 0.001691161907029602 
-0.001377054272188155 0.000852382551409505 -0.0002022924885572497 0.0007312902724919649 -0.000419197425224635 0.0008072403933982261 
-4.347031590336121e-05 6.162457242356542e-05 -0.0007457133643430394 -0.0006350250842391297 0.0008394439325385474 -0.0002415248045117718 
-0.0003652341981364412 -0.0001895920624203011 -0.0004177892991285785 0.0008843232261681348 -0.0001022373090748256 0.0004710860937626695 
-0.0004962404899138985 -0.0004260873128794069 0 -6.776263578034403e-21 -1.233906888099208e-05 0.0003630434110640809 
-0.00265331376003417 -0.0006321225344752321 -4.572876051149257e-05 -6.190625563759807e-05 0.001485562286702447 0.0005115854973757127 
0.0004561241254056178 -8.99772713460945e-05 -5.38884303609662e-05 -7.048667976249368e-05 -0.0003051827837016056 0.0001397601797680616 
-0.0009251406212072011 -0.0008455405829780034 0.0009563331608046779 0.001191773972148053 -0.001339792396440956 0.0007247410417182911 
-0.0005391419011267295 -0.0005048206778767121 -0.0002778190034595713 0.0009313514512903203 0.0005582539512343652 -4.245910657083765e-05 
-0.002354345752995764 -0.003904907655566189 0.0005864284091351821 -0.0009971045638989991 -0.002378871328792611 0.004597512109796313 
-0.00576539569759074 -0.002110989811921356 -0.001099664978553984 0.0006191899485959583 -0.0006696836374345484 0.004764278424540591 
-1.535219556941725e-05 3.388131789017201e-21 0 -4.991602765486193e-05 0 0 
-0.003442222080643036 -0.0006039654114592894 0.0004261782026256927 0.0005558020817496005 -0.001485646809310438 0.003202059399255291 
-0.0005611186709836731 -0.0002447046222403257 -5.069847045300991e-05 0.0001053550901800833 -4.780683970981206e-05 0.0008594740963469107 
0.0004108702834287285 0.0001510973663446636 0 -0.0003156269902542004 -2.101869295863605e-05 -0.0001795872087331639 
0 0 0 0 0 0 
0.001130703208844037 0.0001180752996739885 0 -0.0003100268619225441 -0.0003770192383779166 -0.001089877965362603 
-0.0006832269444165158 -0.0001568584119604545 0 -5.379232049714205e-05 -0.000178160149743157 0.0009011097924049012 
-0.002163255128674415 -0.000166499769386048 -0.0005771342161952161 0.0007646547214384989 -0.0001660569263380191 0.001453331654634037 
0.001160673958419044 -0.0008691231732559527 -6.381812872543276e-05 -0.0001490726124162394 -0.0005362864667537401 -0.0001546626393970754 
-1.54327504120407e-06 -8.848932361690741e-05 0 7.059979468114387e-05 0 0 
-0.0009815405931743702 -0.0003751071512478087 0.0002611915589250463 0.0006896554097290407 -0.0001139233922977881 0.0004053225828996886 
-2.541098841762901e-21 0.0002283975974349617 0 -4.855809927339652e-07 0 -0.0001032409035260993 
0 0.0004749276164971967 0 -3.076055071213095e-05 0 -0.0002059056170111275 
-7.911364498071505e-05 -9.11121221772584e-05 -0.000415516368070207 0.0009553790364495241 -5.018076540556026e-05 0 
-0.001986955279797552 -0.000502609689890908 -0.0002395412733896161 -0.001236995171889439 0.000763750364757695 0.0011183024551828 
-0.00422647778662888 -0.004863268362085033 -0.002307049505498077 0.005583417447068743 0.001488994640722595 0.002261496681896769 
-0.001198510901076305 -0.0005898371175607408 -8.31098535331328e-05 -0.0001041440484197491 -0.0004589244506065956 0.001362199348947351 
-0.001889645012573175 -0.0006222595959843848 0.0004074652031430754 0.0001653259381802796 -0.0003335283292587773 0.00148998804280509 
-0.0002164450457853572 -0.0002669519386140602 0.0007993183628334801 0.000570853662455294 0.0007207318762903111 -0.001039898658847204 
-0.004134877890635893 -0.002689708573875236 -0.0006352523864088378 0.001007099006783162 0.002008958868209692 0.00293574903036924 
0.0003607214832263954 0.0003635617488445338 0.0002611915589250464 -9.613769904259192e-05 -2.101869295863605e-05 -0.0004983232410070758 
-0.01451895254172824 -0.006986090753160257 0.006290149047397085 0.005649503312109763 -0.003298596749375419 0.005925252628780486 
-0.002698248719952985 -0.0008267357026803986 0.001057920269247287 0.002647653474426351 -0.002110594820890467 0.001585488366715587 
0.0007657647098184664 -0.0002810636053202901 0.000607417365451844 -0.0003444701842390238 -0.0003230836854005624 -0.0004482423590429754 
-2.818447845243563e-05 7.37117936697038e-05 0 2.569968544719414e-05 0 0 
0 3.207910053267485e-06 0 0 -0.0001467821126925827 0 
-0.0009379390248242695 -0.000140055351069408 -4.796767941208932e-05 3.808302269922739e-05 -0.0002986676035723908 0.0007674690464324572 
0.0005026128579468351 1.981662895003902e-05 -0.0006579822653629149 0.0008285655067112879 6.137680145143465e-21 -0.0005075361978372704 
0.0001033335957009851 -0.0002638537513903139 -8.31098535331328e-05 -7.050216838711039e-06 -0.0005348155503448668 0.0003016697538428602 
-0.0002746062375725588 7.19411888028623e-05 -0.0004829072408431224 0.0004523225833311335 0.0005740712535968546 3.174720156975711e-05 
-0.006799084772931866 0.00174959051625613 -0.003566171461430406 0.005214856836888323 -0.00242514103306567 0.004375196635276287 
-0.001726341573979348 0.002106421920672548 2.032879073410321e-20 -0.000360591557839289 -0.0001870159363604167 0.001011048508382297 
0 0 0 0 0 0 
-1.54327504120407e-06 9.061214836832924e-05 -4.095592274086686e-05 0.0001395766840216966 -2.38228016415272e-21 -4.565822432958695e-06 
0 0.0001406266723574824 -7.019845191196179e-06 -0.0001181908131236933 0 -5.503764756508948e-05 
5.082197683525802e-21 -0.0001281462589241147 0 0.0002181517828200862 0 4.235164736271502e-22 
-1.535219556941725e-05 3.388131789017201e-21 0 -4.991602765486193e-05 0 0 
0 0 0 0 0 0 
-1.535219556941728e-05 0.0003152732668283004 0 -0.0001305364715441154 0 -0.0001032409035260993 
-0.001143990891011878 -0.0001488759132574469 -0.0004741843595973556 0.001565786584419788 -0.0008183126417295603 0.0007193675427992974 
-0.0004339105300528468 -0.0001066570726481412 1.01643953670516e-20 -0.000214582950415714 -0.0002099773761062233 0.0005541488477138212 
0.0001160039884675014 -5.068520143334852e-05 0 -0.0002003338142688777 -0.0001700899577170202 0 
0.0006288210674237491 -0.0002153933066649639 -0.0008931649178290161 0.00172425026343277 -0.000462575599712761 -0.0001102581445658684 
0 -8.114776655454986e-05 -1.138996475720614e-05 6.331341201056069e-05 0 0 
0 0 0 0 0 0 
-8.917641002114825e-05 -0.0001727808890552952 -0.000415516368070207 0.001037620103650456 -5.018076540556026e-05 0 
0.001151355931927954 -0.001161234483170584 -8.31098535331328e-05 -0.0009021006772684342 -0.0009856820270784483 0.00152744585004355 
-0.001419122022874074 -0.001004009974061978 -0.0006161880117090271 0.00106206710023381 -0.0004464655080149623 0.001837087977830027 
-0.0001265948615886042 0.0002872088268823151 -6.381812872543276e-05 8.096750430364145e-05 -7.303428870652442e-05 -0.0001032409035260993 
-2.435219723356113e-21 0.0001444645263840682 0 0.0003235612419158566 0 0 
2.032879073410321e-20 0.0003559184543183431 0 -0.0001610806774565269 0 -0.0002651188410030001 
-0.0001893609578335762 -0.000107958524981405 0 -6.54277145741508e-05 -0.0003769449934136547 0.0004818666961601011 
5.082197683525802e-21 -0.0001281462589241147 0 0.0002181517828200862 0 4.235164736271502e-22 
-0.00129474543722795 -0.00107826973324536 0.001535905200675379 0.0008558251594482214 -0.00118469322287489 0.0006535986477775477 
-0.0004037510942119809 0.0001216398675716112 0.0005092107980074468 0.0005103125137024291 -0.000638122708913545 -0.0003638157345598281 
-8.036384352759717e-05 0.001459783905373536 0 -0.0005540870126653322 -0.0003560705321509341 -0.0001588621189930582 
-0.001631621955980963 -0.000761925412798399 0 0.0005084070431987673 -9.706678157857001e-05 0.001525345386809565 
-4.36532850378865e-05 7.010025645535622e-05 0 6.947794389835687e-06 0 -8.821244638651589e-05 
-0.0001160044343762215 0.0009280258805600507 -4.572876051149257e-05 0.0001549585177179851 -0.0006218630146402779 -0.000636922498539394 
-0.0003023470200148077 9.073034661760496e-05 -6.425529695411737e-05 -7.863586584038495e-05 -0.0001291701614559334 0.0005905987713558166 
0.0005948692538255153 0.0003154039834461502 -0.000415516368070207 0.0006344820437829824 -0.0001494867995767469 -0.000855937938569528 
-0.0008160761488873328 -0.0001664440458474963 -0.0003811439103766075 0.001277224905131028 -0.000964357953780342 0.00135227925681515 
-0.000135746447860043 -0.0003361410811931331 -0.000102825472571894 -0.0006798741932662332 -0.003706041828915266 0.003063076321143616 
-0.005478076456144209 -0.004068957545236657 -0.001345193749768229 0.002866067088617322 -0.0009038012662523097 0.005751025174805022 
1.057833164071543e-05 -0.0002322671750313583 0 0.0004506157507740347 -0.0001867557916154536 7.765426587040546e-05 
-0.001686848038586774 -0.001152542717273537 -0.0002521617818296494 0.0008449735937654689 0.0007135681850350389 0.0007844252013318432 
-0.000298551756689595 0.0003915945167771573 -0.0004102576769858937 0.0008538854821464484 -1.569238872855307e-05 0 
0.000296060686959755 -0.0007288071006669627 -0.000415516368070207 0.0008278713216547193 -0.001115688167750647 0.0007838480845822545 
-2.97277534936397e-05 -0.0001632424738220517 0 0.0001697975954147911 0 0 
0.0002497689262703923 -0.0003210691661935031 -4.570167614214253e-05 0.0001076496567696702 -0.000217235325440004 -6.125896241450633e-05 
-0.0005711839490423299 -0.0004518828690875048 -0.0004846545279087818 0.001167445064981642 0.001058727318600172 7.263592259524805e-05 
-0.00163274839224733 0.000129211706746167 0.0001117769038744454 0.0001966430250349982 -0.001161979142386147 0.001741192541400355 
-0.0006188119667162619 -9.278379619781151e-05 0.000607417365451844 0.0007327099170280102 -3.97786914212755e-05 -0.0004880483960494005 
0 0 0 0 0 0 
-0.0002026671820929674 0.0008738283668968848 -9.16543931938768e-05 6.499742955722577e-05 -9.906907642867178e-05 -0.0003676348326488934 
-0.0003055339262059821 -5.082197683525802e-21 0 0 -0.0002637854836119046 0.0003123939930848904 
6.776263578034403e-21 0.0005097648391600793 0 -0.000179656039330156 0 -0.0001588621189930582 
-0.0002221909106783911 9.989282093441916e-05 0 -7.206524001545731e-05 -7.303428870652439e-05 0 
0.001495039978072697 -0.0002172882115402898 -3.379175771026872e-07 -0.0009314961277157854 0.001044503719323479 -0.001985620204579249 
-0.005825371615250106 -0.01245763744236128 -0.002717351345956521 0.004391667669041027 0.001595452132470687 0.007665883309450334 
-0.0008144040973956562 -0.0005291575096531022 -0.0004585632739750859 0.000990345387410115 0.0004844006966628001 0.0004185718605997605 
0.0003099327007516794 -0.0004678421544200362 0 0.0005153918345712099 -0.0001273797435894297 -3.825485965665643e-05 
0.0003681257539601212 -0.0005379530037492832 -0.0001045869008139761 0.000143913434576245 -0.0004062355022112294 2.319445035360299e-05 
-0.005149560745313757 -0.004532504829458739 -0.0006890381715360895 -0.003910047127811634 -0.0008279128648652363 0.007271749542249308 
-0.0004067895793775977 -0.0002714187572797223 -9.143043665363512e-05 -0.0003169323104584627 -0.00111373914715158 0.0005954387628827111 
-0.004376679823977067 -0.002852559077770813 -0.005679494999628862 0.005948557923891666 -0.002029081902042982 0.003816824411168018 
-0.002715859335781102 0.0007355396729303246 -0.002137830703416597 0.002763626292689265 0.00175104772873911 0.001463067186760029 
0.0001591885604107375 -0.0006585496957826434 -0.0005572942131304888 0.0002746055271767494 -0.0008206471925609438 0.000146531212252117 
-0.0006561062386828641 -0.000298580233317393 -1.138996475720611e-05 -5.615675132706472e-05 1.588186776101813e-21 0.0006780377344147671 
-0.0001265948615886042 0.0001405380084244617 0 -8.046023356727334e-05 -7.303428870652442e-05 -0.0001618779374769007 
0.0008063344983209386 -0.0005982867390601777 0 0.000272573651063903 -0.0006281254202551232 -0.0003198457590581824 
-0.0004446561779072608 0.000203227649847487 0 -0.0001162324802343327 -0.0004219661354939214 0.0001967078959941337 
-0.0005215583589620234 -0.0001911346658483655 -6.415604630253541e-05 7.237492101650221e-05 0.0005510535025703815 5.035706471344706e-05 
0.0003790682923959142 8.015002096473851e-05 -0.0005823864705070442 0.0008305681113821397 -0.0005953906141296692 2.128231162182528e-05 
-0.006587837820287243 0.004955301953318769 -0.0001322508145107323 7.107679990764114e-05 -0.00351725692551576 0.00199634471619651 
-0.001160691413526648 -0.004195648824348577 -0.002719663210670285 0.001961733638301839 -0.0008017994142711419 0.002154703333549438 
-0.0008155954800332314 -0.0005100090413455535 -5.069847045300992e-05 5.54543286078235e-05 -0.0004721034926718252 0.0009831195804196726 
-0.002675706382693673 -0.002356209107756503 -0.0009144758932985114 0.001377535047362435 -9.974125655825741e-06 0.002531339970864076 
0.0004039285798659326 -0.0003802804443094633 -0.0004102576769858937 0.001343000272576533 -0.0002198164013991072 -0.0001938842608780579 
-0.0002691188345227637 0.001048771744782605 -0.0005975323939075937 0.000681426346337683 -0.000137070709746909 -0.000453276850556233 
0 0 0 0 0 0 
-7.525138367530369e-05 -0.0009303684812731266 -0.0005383368492602071 0.0008807381326624193 -0.0001840196712402802 0.0003768632579635499 
0.000116763263891279 -0.0004608556884209475 -6.425529695411737e-05 0.0004427207377452168 -0.001158971476696575 0.001217666368674445 
0.002601474641480497 -0.0036520433739325 0.0009059824758238188 -0.004883329915645886 0.006142327698282832 -0.008637959031922667 
-0.004498677135431957 -0.00391508244507884 0.001905979725193874 0.001369484666397445 -0.00175488451320321 0.005585773371121417 
0.0005794840179895719 0.0003481754219995763 0.0003260913752691865 -1.805773244249366e-06 -0.0003134822725609683 -0.0006696817033721142 
-0.006339380427048948 -0.004475148763584259 0.0009158522383635629 0.0002003659678475406 -0.0002406742567905708 0.00413330279021554 
-0.001761516863145491 0.0001503420613764107 -0.0001017455948643717 -0.0002635849927241623 -0.0001633373589754435 0.001912671215030937 
3.076380799524294e-05 -0.0008306837146302996 0.001164136260450677 -3.577222978704496e-05 -0.000322720363578514 -4.618659303262987e-05 
-0.0008512449464860686 0.000678343672783089 -0.0004832451584202251 9.541268548264519e-05 -0.0001370822484187483 0.0005423141471452628 
-0.001175743714856134 -0.002296295512690928 -0.002022763049450684 0.003609727463072131 0.001294138978784685 1.15744240620639e-05 
-0.001289727884594721 -0.01413902049731688 -0.005338690166438345 0.004977954090341736 -0.01107321379285116 0.01250462395298579 
0.003137100838634919 -0.001663703985570501 -3.388131789017201e-21 -0.0008840543808071262 0.0003633696237607081 -0.00185617835399408 
-0.001272767232001423 0.0001007475932180175 -0.0005337800382753082 0.0006215743158203721 -0.0002221404717788652 0.000953194094986254 
5.562364103567666e-05 0.001296146381173331 -0.000957091600440478 0.001230889038624623 -0.0004020698293283097 -0.0007759441540061554 
-0.007894532069792208 -0.01014725752938422 -0.003468559513329602 0.006576865052084402 -0.005092346147231687 0.01295277309781434 
-0.001269537827926577 -0.0004621657469079607 -0.0004216476417430998 0.001127640417821485 -0.000857860747510463 0.001551827944802398 
0.00950986552545624 -0.01631238482855864 -0.003639479044851901 -0.001762790191546779 -0.003802284183639968 0.001215408922601305 
-0.001912157251136697 -0.002503993439372551 -0.003829004752194238 0.002597595848346942 -0.005027532129803422 0.003614752885452413 
0.01955900182758488 0.00245381299634775 -0.001400079782938002 -0.00556211049881005 -0.005866398917356267 -0.01701795469007263 
0.0003367283108654217 -0.0001824368680315079 -0.0001782883527540357 -0.001036190643528634 -0.002731293366779012 -0.0009704273067216936 
0.001588416876153601 2.517611873842442e-05 -0.0004740758057113266 0.000379575217516189 -0.000505152840328175 -0.001842070856506537 
0.00110170095727451 -0.001329398466432232 -7.469161775891834e-05 0.00101489785477233 -0.002340684320455449 0.0006674720903266111 
-0.00162253410526447 -0.003879220969229792 -0.002739470506248772 0.002071252179047376 0.002671769603382825 -0.0003454216530939122 
-0.002709889878265008 -0.001157022381791771 -0.00137203875982867 0.003626564080528662 -0.002248018649719535 0.002113405982481493 
-0.006180311140597947 -0.002314886201856252 -0.002506449519601404 0.00464215294842403 -0.001581996724500742 0.005506076327808844 
-0.01155189296051198 0.01224313034440871 -0.0110948107100691 -0.0314857061161358 -0.0008556336292858217 -0.01744788382971771 
0.001692117535842522 -0.003363404122898532 -0.005078726313884592 -0.004332233638031222 -0.001485268545631318 0.007237144022903015 
-0.00083406632846497 -0.000311423186998362 -0.002617617187000681 -0.003219992043192148 -0.004837485651040366 0.006608499048465182 
0.00702684369800835 0.005519904485680997 -0.004674876068812107 -0.003028994383890579 -0.00180743260740025 -0.003131338440107262 
-0.04047744300955073 -0.004080660877341684 -0.002515085381303533 0.02837491419372812 0.01597483502728911 0.01998282401741696 
0.007168041355450911 0.000179922781744573 0.002048978934869498 0.002983495153956207 0.007195624308578561 -0.007055236932608436 
-0.003903349833935616 0.01524342090169894 -0.001068918466204143 0.008792252110132268 -0.001599897493692731 -0.01527233955191614 
-0.01525153628385851 0.003322149787110892 -0.0467856084048672 -0.02101107700698631 0.03771423054666745 0.02629963285992706 
0 0 0 0 0 0 
0 0 0 0 0 0 
0 0 0 0 0 0 
0 0 0 0 0 0 
-0.009959209903174797 -0.008919362967692395 -0.004464884438225039 -0.000813778049708678 0.000119457958051872 0.01398093749802665 
-0.001886822100131569 -0.001522221933331746 -0.0001361011762889538 -0.0001436348331816252 -0.0007154533640517178 0.001741935837555022 
-0.002344838350075388 -0.0005617893455717754 -0.0003862966980569694 0.0006330896958905433 -0.003880795790306801 0.005427481530202586 
-0.0006579529668150389 -0.003356876178396271 -0.0007292904985191359 0.001548425560253579 -0.000920732566632498 0.003324056231962397 
-0.003132820603725337 -0.0005232754632831752 -0.0007834946643336475 -0.0002526081010376527 0.004602629704913545 0.0001551791962380718 
-0.002881701949683445 0.0001965218285925586 -0.0002002196627474836 -3.282034309091851e-05 0.001056687689925707 0.001219043333961967 
-0.003884123045728952 -0.001239184764272845 0.0001515904511574525 -1.996604407345219e-05 8.886172127800815e-05 0.003199136439595405 
0.00904232227103424 -0.00660061346839023 -0.0008096628961466518 -0.001376756549152708 0.002786890115570819 -0.005324065295721947 
-0.0001607582924395462 -0.007717353360066358 -0.0003531032428494125 -0.000953779449764615 0.006944461339671808 -0.001748353434482931 
-0.001303783830516747 -0.001869138670314235 -3.263035095495582e-05 0.0009188533712925201 -0.002927700536628953 0.003607715309066506 
0.0007971914377388166 -0.001302149955620809 0.0003530960006293416 0.000855060462175105 -0.0005057353413414382 -0.0001086119196486756 
-0.002092624280365849 -0.001833261755063375 -0.0003358221018680619 -0.003066980742024483 0.005430018743563998 -0.002053113860575684 
-0.002707709825252793 -0.001090730350008717 -0.0006527730007849554 -0.0002305654951401718 -0.0005488296283705869 0.003364546458614726 
0.0007353161443220241 0.0001419763298335609 0 1.455319529178931e-05 -4.83989706072812e-05 -0.0005000598688071845 
-0.004217394852005165 -0.0004154987457949561 -0.001416829599964798 0.0003598581551032687 0.002288697892814215 0.002620372454538969 
0.02399796203360625 -0.02105669964662593 -0.006503356773521127 -0.01176866897267044 0.004374403632877565 -0.003398821376836664 
-0.003240127906729964 -0.01211287277696956 -0.001409055199549923 0.001080139698030449 0.006913548644255892 0.001112955681000234 
-0.002108920245375932 -0.0002830567870552771 -0.0005470539574869685 0.0002221720212437321 0.002409626158988966 0.0001809339564446408 
-0.000348481953704028 -0.00137718345661153 -5.941453210909857e-05 -0.0002033586459550071 -0.00104307280947725 0.002192912386850354 
-0.002159240505103121 -0.0001790246860636815 -0.0007243021446867541 -0.0002994111852537187 0.002905001130825413 0.000101825312373189 
-0.003894334702542512 -0.003249782082842435 -0.0003152106468091608 0.002555937017028446 0.001607852605658928 0.002121431086692783 
-0.002276899677733922 -8.558659439531827e-05 -0.0002730781769178564 0.0006581399809825622 0.00164603448411433 -2.371692252312041e-20 
-0.009182336966026662 -0.00501460730671205 -0.003509362024489306 0.001829970363439792 0.003265504255742195 0.006992526542672879 
-0.005252173930260235 0.003553548795460244 -0.006031011533639075 -0.004374466869414739 -0.0005426792876189884 0.006085665076577656 
0.008718021656066973 -0.007472511002722579 -0.0007212362436997923 0.0005735914840040745 0.005418020789789924 -0.003050297810056748 
0.000979714572915861 4.240042927629743e-05 -0.0001283042648388909 0.0003236777710874317 -0.0003103919688738424 -0.0003011066105442351 
0.0003425896718471677 -0.0001940113914460088 0 0 -0.0006104938203284143 -6.776263578034403e-21 
0.001798082926678297 6.547794945438802e-05 0.0002940149047766811 -0.0004109897722127444 0.001252015429014749 -0.002229856752528706 
-0.001826678110375389 -0.001058175228797111 -5.048097445545438e-05 0.0001751310121401006 0.0007823847834448051 0.001366198853495216 
-0.001546836834497871 -0.001300450662744596 -0.000254832952833157 -4.480423845352208e-05 -0.001151717888706437 0.00287111717486539 
-0.001126724572892731 -0.0005374262052302037 0.0003468101557434411 -0.0005330785851822622 0.0007987680921601031 0.0007020168218596994 
0.006825292725607334 -0.003162718663175146 -0.00621049498024246 -0.00821969512125262 0.01078198185268118 -0.00239024915002831 
0.008323005386910123 -0.0004874631500360556 -0.0003912494352357123 -0.0009353893790240754 -0.004702116204546461 -0.001940394084901009 
0.0005639332686296999 -0.0002120679789019691 -0.0001278591940859388 -0.0003675437468458593 0.0005036610663679717 -0.0008829726132327096 
-0.0002140649990289791 0.0008777997873632978 -0.0001718445432748911 -0.0003896531086272922 -0.0007744880528674292 0.0001761961649877074 
-0.000641112582483583 -0.0001613819008213375 -0.0005935122203299735 -0.0001306468934866013 0.001203128418542226 0.0003843581998303521 
-1.413298012860524e-05 -0.0005296274285563886 -6.444642942721106e-05 9.273048743516308e-06 -0.0008552074213690594 0.001256266537503029 
0 0.0002882945218576827 0 -7.372154498486066e-05 0 -9.440631366446143e-05 
-0.0003498122929984361 0.0002428231584316977 0 5.932241838852805e-05 -0.0001201039177886621 0.0002438050216272955 
-0.0009722947228836746 -3.06294891037934e-05 -0.0003282402614286446 0.000355481070985045 0.0005600407808251576 0.0007320404001027921 
0.003463830174717767 -0.00293260777042865 -0.002027663988219758 0.0003732569204858844 -0.001406401067621522 -0.001371348379245379 
-0.002656534162905194 -0.00713004020830253 -0.0004788597817093979 0.001154931802205384 0.004149870362578138 0.0007026757451205498 
0.001229820824147367 0.0007155850690878628 -0.0003701743860408801 -0.0001934103130034467 -0.001406323768450313 7.261339104957734e-06 
-0.006909670118260349 -0.004122093255934312 -0.0006649125841821544 -0.002460733236862714 0.01357483202915468 -0.001459112616060661 
-7.977879610595166e-05 7.439017233091038e-06 -6.776263578034403e-21 -9.436714952058589e-05 -0.0006895354168006374 0.0006133422579351322 
-0.0009018550859748372 0.0007549625959275417 -5.705149383845394e-05 -4.934687211847141e-05 -0.0004729487360554436 0.0005357513926591613 
-0.0002386160515537853 0.0006409982592554636 0 4.505014457997233e-05 -3.205788905571935e-05 -0.0001888126273289229 
-0.0163190244917442 -0.006704252338232736 -0.007972426490738456 0.0003227692921794651 0.01400070336987066 0.01205637513077318 
0.001924082769091101 -0.0009102966921150876 -8.957581165622938e-05 -0.0008010588996514474 0.0010102422318234 -0.001821242745956892 
1.824112631135546e-05 0.0001126198777322338 -0.0003595831874855988 -0.000255752112240641 0.0008164307566358574 -0.0001569855230353909 
1.694065894508601e-21 -0.0001956271005813771 0 0.0003330288462421968 0 -4.235164736271502e-22 
0.000256094805755654 0 0 0 -0.000118963333437576 0 
-0.001059826489251483 0.0006678838171572026 -5.705149383845394e-05 0.0001094179548553694 -0.0008106395421320084 0.0009745045687303595 
0 0 0 0 0 0 
-0.0003069791761030342 -0.0006707246818260962 -0.0009215910771633959 0.0008259753928937653 0.0007711303861450588 -0.0002954094443870335 
-0.001961867464298813 -0.0003213715010493271 -0.0003374574852400188 -0.0004952043598896487 0.0002212241272265295 0.001720618526063456 
-0.0007641717269450574 -0.0007121048688141654 -0.0003143618357061055 0.001318865188720518 -0.00141844409509049 0.001117516211773467 
-0.002227035497388708 -0.001060284434900793 0.0003154267337886939 1.76441539264886e-05 0.002741762802551614 -0.0001483514871749588 
0 0.0001999683725424484 0 -0.0001018243958165261 0 -5.718748531060777e-05 
-0.004954125918047351 -0.0009007403885146697 -0.0004883255036639495 -1.723811062722022e-05 0.002339427170037458 0.002395502527669757 
-0.0001354272544631983 -0.0001086565356152561 -4.648036432648194e-05 0.0001094179548553694 -0.0003334788440427006 0.0003826359036507564 
-0.0001581804325155626 -0.0004942563598620688 -0.0008165818609102288 0.0002817336647555627 -0.0007961479557625818 0.001562000904244876 
0.0001351263106317868 -0.00057676630876589 0 0.0002323708361958064 -0.001088339852584455 0.001244164099048186 
0.005328726142057792 -0.004054205588168455 -0.003484308103882929 -0.0005841112938943342 0.001997837288201459 0.002140713842809881 
-0.0004857679881262914 -0.001825467760832989 -0.0008956169758033022 -0.0001140857604369021 -0.001941800552450617 0.003403455697381832 
0.001428531960617034 0.0001694456883706574 -0.0002988378255355528 -0.0007845917161041675 -0.0006242283844096124 -9.954857479081236e-05 
-0.0002817253463087819 -0.001352038533796225 -0.001201460745871999 0.0003105936334969209 -0.0008085430395851947 0.003143453597406391 
0.001463670108513231 0.0002720449108428706 -0.0005710968015301404 -0.0001235164962524741 -0.0006514873411953608 0.0001198632755509646 
0.0004947599398385462 0.001064752436677102 -0.0001782011851374864 -0.00103600057190005 0.001071653683389498 -0.001772357064059784 
0.0001487177126900839 -7.506174413888139e-05 0 0.0002584067701301125 -0.0004254842028594155 0 
0.0009159877809248601 -0.0001104643443171971 -0.0006855967569154327 9.617376972770904e-05 -0.0001250299570911759 0.0003455343143622609 
0.001692121823484961 -0.0005962507951573053 -0.0002873470517468659 -6.360667219896622e-05 -8.63863974988322e-05 -0.0004613762312706551 
0.001880794393040872 -0.0008115542834373354 -0.0006343556546350159 0.0006283253691838883 -4.04088172155154e-05 -0.000460805965399585 
-0.0001224911826588041 0.0002707575377540939 -0.0003745520146386208 -0.0003139900251631067 0.0009943390036760203 -0.0003183341337250632 
0 0 0 0 0 0 
-0.001706362545753679 -0.0006929678767260182 -5.048097445545437e-05 0.0004142233754918953 -0.0005154419061413118 0.001377389400054046 
0 0 0 0 0 0 
0 0 0 0 0 0 
0.0007755410270566214 -0.0002618293985639768 0 1.270549420881451e-21 1.694065894508601e-21 -0.0002120422373207922 
-0.003539025097072131 -0.001308858112274413 -7.782329038343643e-05 -0.0001970004678853679 0.0002406070696284615 0.0036984023489541 
-0.0007238445036951912 -0.0005304788214833997 0 0.0005894071857811465 0.0008006385981405717 0.0005031503402620801 
0 0 0 0 0 0 
0 0 0 0 0 0 
0 0 0 0 0 0 
-0.001193556768684837 0.0005439839542670284 -0.0001782011851374864 -0.0008480532739122507 -2.690798428220685e-05 0.0001947706489904162 
0.0004144486254919828 -8.462968257136879e-05 0 -0.0002477874339935773 -0.0003119333435878604 -6.391651102869996e-05 
0.0009378931905634098 0.0001842102396252649 -0.0007499261565928534 0.0003622761613083311 -0.0009824614491933509 0.0007429418435735684 
0.0002109963126371207 0.0005029178986211899 0.0004619895938643891 -0.0002055884184507141 0.0001562545581440567 -0.0007241988474459653 
0.0006738535110817877 -0.0003912542011627543 0 0.0004897764991910293 -3.405559071870261e-05 -0.0004969547712646255 
-0.0009395487690719706 -7.279112929877237e-05 0 0.0001814242656540823 0 0.0006039912586800652 
0 0 0 0 0 0 
0.0001487177126900838 0 0 -2.332689462545007e-05 -0.0004254842028594155 0 
0 0 0 0 0 0 
0.0004512314644625445 -0.0003059876639132071 0 -3.040103135811546e-05 -0.0003119333435878604 -1.694065894508601e-21 
0 0 0 0 0 0 
-0.0001913473837482634 0.0005406063668893985 -0.0006830143463934986 0.0003878453869103087 -0.0001499382441092119 0.0001745206502176511 
0.003919726847671499 -0.002127945260613037 0.0001734042639764116 -0.001037038328708417 -0.002428191894823968 -0.0006454823315137523 
0.001562471569269983 -0.0001876974769726815 -5.04809744554544e-05 -0.0005098421427532973 -0.0005579026194620431 -0.0005279346793441298 
-0.000227132309231257 -0.002380469421035549 -0.0008124161717597157 -0.000782597143803139 -0.001292958801056526 0.002864744506034638 
0.0004447475181565811 -0.0003979416048754287 -6.444642942721106e-05 0.0001457491282424932 -0.0004883366923915393 0.0003474212347350359 
-0.001497214627228573 -0.0002722294666382162 -4.865986780952895e-05 2.785762581098393e-05 0 0.001227771903866438 
0 0 0 0 0 0 
